svm_type c_svc
kernel_type rbf
gamma 0.0238095
nr_class 54
total_sv 1615
rho 0.340329 0.294397 0.167881 0.185757 0.153833 0.279856 0.0711517 -0.064579 0.312181 -0.008304 -0.00752985 0.0759228 0.371714 0.146293 0.0865587 0.261475 0.502248 0.358841 0.329883 0.0332371 0.250752 0.122871 0.320988 0.546392 0.560112 0.159353 0.281933 0.316084 0.393068 0.410125 0.330152 0.241492 0.209288 0.462105 0.187193 -0.0475228 0.145736 0.161382 -0.0895335 0.285495 0.138405 0.271561 0.22236 0.349277 0.302909 0.361124 0.600769 0.264899 0.319157 0.380368 0.257373 0.0917875 -0.190278 -0.0785901 -0.206872 -0.183867 -0.250572 -0.119584 -0.266109 -0.380487 -0.0114792 -0.327329 -0.323682 -0.252027 0.0632762 -0.181253 -0.372037 -0.07368 0.231157 0.0459122 0.0128734 -0.293154 -0.0742691 -0.204115 0.00130969 0.294605 0.311115 -0.168981 -0.0464764 -0.00520154 0.0921296 0.113881 0.0133744 -0.0928046 -0.118505 0.180989 -0.15633 -0.360983 -0.183846 -0.18035 -0.420211 -0.0467241 -0.238313 -0.0590472 -0.115536 0.0331516 -0.0410304 0.0515126 0.370596 -0.0644315 -0.0231681 0.0693273 -0.0875776 -0.240446 -0.398939 -0.254921 -0.091971 -0.162239 -0.0473356 -0.186644 -0.310301 0.0678703 -0.258869 -0.289261 -0.180306 0.135374 -0.105804 -0.241851 0.0220326 0.289998 0.122543 0.0888913 -0.222405 0.00287601 -0.129051 0.0786827 0.345245 0.361554 -0.0938374 0.0356587 0.0722958 0.160842 0.180748 0.0894697 -0.00779792 -0.0415216 0.248545 -0.0716872 -0.292815 -0.111282 -0.0972764 -0.249835 0.0390439 -0.146329 0.0250509 -0.0304305 0.109269 0.0423418 0.124121 0.418547 0.0156873 0.0622673 0.145404 0.0070239 -0.1663 -0.340068 0.0221826 -0.0348724 0.114288 -0.0969684 -0.224446 0.186798 -0.174018 -0.158647 -0.086794 0.229801 -0.0135352 -0.0819779 0.143188 0.377276 0.210273 0.1803 -0.13367 0.0956108 -0.0372308 0.169939 0.431987 0.44682 -0.000346138 0.129991 0.163387 0.249543 0.271912 0.180719 0.0857057 0.0527565 0.343021 0.0287258 -0.205209 -0.0185993 -0.00333213 -0.249403 0.13073 -0.027101 0.118045 0.0656344 0.200315 0.149138 0.215426 0.508838 0.106688 0.158655 0.231018 0.100055 -0.0736325 -0.200937 -0.034971 0.112437 -0.11177 -0.241787 0.165948 -0.188977 -0.182323 -0.108884 0.246345 -0.0355109 -0.0832348 0.0939713 0.421679 0.236479 0.194471 -0.150155 0.0903967 -0.0593134 0.182949 0.469447 0.484632 -0.0226579 0.13063 0.174533 0.276528 0.298312 0.195075 0.0782322 0.0345525 0.364625 0.00728039 -0.227101 -0.036631 -0.0256389 -0.268316 0.135161 -0.0682247 0.117887 0.052548 0.217177 0.157283 0.235051 0.53316 0.105026 0.166168 0.267329 0.0942654 -0.0955875 -0.2215 0.240803 -0.0804839 -0.211099 0.311083 -0.158808 -0.142138 -0.0738989 0.251326 -0.000686089 -0.0687754 0.116941 0.394892 0.225168 0.193873 -0.117205 0.10795 -0.0244051 0.182128 0.448358 0.462964 0.0124502 0.141191 0.17564 0.266933 0.287491 0.193718 0.098168 0.064976 0.356125 0.0415741 -0.192951 -0.00658702 0.00937067 -0.232734 0.143311 -0.0102572 0.12986 0.0780313 0.214567 0.123247 0.229866 0.518496 0.119059 0.186301 0.247289 0.112873 -0.0608299 -0.18739 -0.205205 -0.324601 0.0591604 -0.275501 -0.266698 -0.196465 0.136553 -0.123409 -0.213634 -0.0109537 0.313878 0.12256 0.0780749 -0.237553 -0.0149707 -0.14654 0.0661041 0.370682 0.388592 -0.110689 0.0175893 0.0580943 0.163207 0.186592 0.0788057 -0.027531 -0.0596339 0.271922 -0.091634 -0.308981 -0.129178 -0.114793 -0.304314 0.0210557 -0.167991 0.00722232 -0.050359 0.106766 0.0419539 0.120484 0.459466 -0.00202383 0.0751649 0.153833 -0.00961435 -0.183002 -0.310006 -0.138769 0.255143 -0.0799307 -0.0611243 0.00326011 0.32274 0.0764237 0.0421294 0.188324 0.463682 0.303944 0.274643 -0.0392694 0.186329 0.0526652 0.263547 0.513709 0.533514 0.0910731 0.231739 0.256802 0.344619 0.366858 0.275485 0.177173 0.140889 0.422185 0.118239 -0.117688 0.0773374 0.0867513 -0.151229 0.223744 0.0679856 0.208975 0.154098 0.31035 0.258256 0.318062 0.581149 0.204239 0.292366 0.333423 0.193034 0.0164102 -0.105641 0.365048 0.0563093 0.0748363 0.150751 0.442208 0.207853 0.215106 0.311861 0.546189 0.410494 0.388803 0.0956441 0.309454 0.184986 0.376731 0.590247 0.608845 0.221262 0.339321 0.370953 0.445579 0.461788 0.386984 0.300514 0.269932 0.509711 0.251335 0.0161866 0.207047 0.27066 -0.0169321 0.349723 0.199977 0.331808 0.281853 0.425489 0.364991 0.420123 0.638254 0.349936 0.375376 0.444449 0.314865 0.187536 0.0290016 -0.335941 -0.302502 -0.239453 0.078024 -0.169946 -0.229772 -0.0607756 0.244416 0.0598355 0.0267028 -0.279973 -0.0620249 -0.192232 0.0151679 0.306651 0.321468 -0.157648 -0.0350249 0.00808975 0.105792 0.127934 0.0272493 -0.079834 -0.10675 0.199933 -0.142855 -0.350051 -0.22895 -0.162956 -0.381146 -0.0296744 -0.223421 -0.0440354 -0.101946 0.0467031 -0.135856 0.065348 0.376307 -0.0513019 -0.00828319 0.0824452 -0.0709132 -0.227096 -0.342773 0.0191678 0.0832659 0.322845 0.154767 0.12124 0.264568 0.508123 0.363715 0.338525 0.0406427 0.331386 0.131026 0.327813 0.552065 0.563951 0.211526 0.341575 0.32541 0.40014 0.424901 0.364037 0.254271 0.266817 0.475387 0.197254 -0.0391109 0.162243 0.164559 -0.0712224 0.291716 0.146136 0.296593 0.231365 0.355838 0.312817 0.3705 0.602627 0.269472 0.314859 0.382759 0.262939 0.0954081 -0.026648 0.0675953 0.363059 0.136143 0.105233 0.253142 0.50135 0.354267 0.320087 0.0139726 0.241054 0.112225 0.313552 0.538629 0.555718 0.153328 0.282665 0.314959 0.383973 0.402564 0.320847 0.232162 0.201884 0.45905 0.176647 -0.0582863 0.136762 0.149041 -0.0943116 0.274736 0.127648 0.262606 0.2126 0.342531 0.296054 0.35212 0.595039 0.257963 0.316969 0.378446 0.250198 0.0777096 -0.0499293 0.312813 0.0731409 0.0398222 0.182839 0.4508 0.290545 0.263028 -0.0419277 0.180453 0.0494684 0.257959 0.492274 0.5117 0.0899609 0.216315 0.25382 0.328741 0.34701 0.264755 0.170929 0.137946 0.401269 0.114857 -0.0957146 0.0721985 0.135504 -0.172052 0.229018 0.0648373 0.202736 0.150923 0.29022 0.247185 0.297531 0.548353 0.223162 0.246497 0.341438 0.188523 -0.00493592 -0.109473 -0.236191 -0.305015 -0.128872 0.173274 -0.0166876 -0.0557577 -0.34268 -0.113544 -0.258446 -0.0702879 0.242773 0.262406 -0.229511 -0.103661 -0.068088 0.0275827 0.0482634 -0.0444074 -0.154589 -0.149268 0.120147 -0.311447 -0.410366 -0.241745 -0.239724 -0.439952 -0.114023 -0.301649 -0.139965 -0.178095 -0.0253055 -0.11182 -0.0113621 0.316542 -0.123622 -0.0898134 0.00879299 -0.154158 -0.297454 -0.399917 -0.0367743 0.111772 0.39002 0.221373 0.192708 -0.123295 0.108552 -0.0239183 0.182492 0.434722 0.447095 0.0129792 0.141642 0.176209 0.261886 0.284065 0.19319 0.104771 0.0645099 0.338658 0.0419444 -0.192359 -0.000819828 0.00999032 -0.222936 0.143861 -0.00952783 0.132502 0.085117 0.210247 0.158371 0.226613 0.49419 0.118927 0.162004 0.241516 0.113133 -0.0601032 -0.180303 0.165977 0.445124 0.281884 0.252639 -0.0803882 0.158261 0.0110222 0.239466 0.496878 0.519095 0.0525313 0.194401 0.232105 0.322054 0.341713 0.250469 0.147504 0.111329 0.400826 0.0848685 -0.159851 0.03779 0.0602836 -0.16057 0.202524 0.0279277 0.182718 0.125153 0.298659 0.231749 0.290474 0.565977 0.213476 0.251171 0.338162 0.167643 -0.0287556 -0.126793 0.283117 0.114571 0.0834228 -0.224559 -0.00273103 -0.134502 0.0732225 0.342517 0.357644 -0.0990973 0.0298444 0.0667768 0.155352 0.175247 0.0838813 -0.0141076 -0.047595 0.242164 -0.077819 -0.297044 -0.117983 -0.101269 -0.333968 0.0332049 -0.152673 0.0193935 -0.0366807 0.10156 0.0314295 0.118417 0.413149 0.00801229 0.0517945 0.134154 0.00209566 -0.170066 -0.296738 -0.21411 -0.225424 -0.478469 -0.288518 -0.401221 -0.288762 0.0736905 0.0972591 -0.371288 -0.276841 -0.249685 -0.141363 -0.140549 -0.218551 -0.321411 -0.325025 -0.0557907 -0.373979 -0.561273 -0.3878 -0.403831 -0.572676 -0.314104 -0.469454 -0.307274 -0.343724 -0.199012 -0.311084 -0.183746 0.164107 -0.284304 -0.256281 -0.178134 -0.339116 -0.445749 -0.528183 -0.03169 -0.327982 -0.115813 -0.243881 -0.0579731 0.266119 0.282218 -0.215853 -0.0949424 -0.0514755 0.0476349 0.0714318 -0.0321785 -0.137885 -0.164713 0.153214 -0.200233 -0.398734 -0.224285 -0.220209 -0.443468 -0.0957163 -0.304202 -0.108788 -0.160353 -0.0117988 -0.0860986 0.00583151 0.343071 -0.105504 -0.0683953 0.0230528 -0.136532 -0.277941 -0.389518 -0.300778 -0.0861142 -0.215495 -0.0114792 0.296134 0.308695 -0.180213 -0.0593083 -0.0181944 0.0784003 0.100359 0.000542614 -0.105591 -0.131237 0.17133 -0.169208 -0.371272 -0.193726 -0.189779 -0.399113 -0.0592431 -0.251373 -0.0734867 -0.128269 0.0191152 -0.0439425 0.0376578 0.363104 -0.0756948 -0.0350495 0.0583153 -0.100106 -0.2517 -0.360343 0.220551 0.0911271 0.291219 0.523209 0.534885 0.128186 0.253623 0.285834 0.365639 0.384955 0.301287 0.211995 0.178111 0.435939 0.155948 -0.07944 0.114493 0.12461 -0.11197 0.254261 0.106452 0.244666 0.196503 0.31801 0.269807 0.332841 0.579148 0.230927 0.281984 0.347164 0.225196 0.0550402 -0.0684109 -0.131908 0.0759525 0.342455 0.357382 -0.108597 0.0292899 0.0693916 0.158018 0.178368 0.107398 -0.0200106 -0.0516703 0.241153 -0.076453 -0.294703 -0.112755 -0.0985289 -0.32356 0.035921 -0.149369 0.0310727 -0.0342331 0.104525 0.0510881 0.121618 0.404842 0.0106742 0.0545953 0.136873 0.00476179 -0.1675 -0.283026 0.205293 0.453791 0.465996 0.0367454 0.163502 0.199127 0.283987 0.303506 0.215943 0.104806 0.0881706 0.358626 0.0657195 -0.169285 0.0227539 0.0337432 -0.200231 0.167826 0.0154912 0.1536 0.102327 0.232907 0.181562 0.248969 0.509222 0.142351 0.184761 0.263851 0.136665 -0.0363024 -0.157075 0.338098 0.356955 -0.170129 -0.0480592 0.00304715 0.103678 0.129278 0.0123515 -0.0942067 -0.119513 0.20847 -0.157618 -0.388779 -0.183591 -0.180338 -0.393732 -0.0615415 -0.242736 -0.0610104 -0.117027 0.0376758 -0.0686264 0.054978 0.408067 -0.0660827 -0.0235478 0.0831268 -0.0891746 -0.240357 -0.351488 0.12313 -0.424181 -0.335938 -0.317022 -0.207568 -0.212023 -0.281852 -0.376675 -0.38096 -0.122656 -0.438348 -0.578778 -0.435677 -0.451911 -0.600253 -0.360468 -0.515489 -0.3674 -0.39627 -0.263137 -0.365433 -0.252519 0.0830423 -0.343372 -0.314722 -0.241511 -0.391741 -0.498522 -0.570285 -0.438564 -0.351724 -0.33328 -0.223016 -0.229569 -0.297718 -0.390472 -0.394887 -0.139544 -0.446418 -0.591008 -0.448583 -0.471717 -0.622787 -0.376885 -0.530217 -0.38377 -0.409935 -0.252528 -0.356795 -0.271043 0.0677164 -0.328098 -0.284921 -0.25229 -0.418302 -0.513397 -0.581739 -0.0222406 0.190047 0.249812 0.277879 0.186967 0.032876 0.0581653 0.335662 0.0289991 -0.205012 -0.015532 -0.00300949 -0.238312 0.131099 -0.0264914 0.122501 0.0662043 0.199932 0.146824 0.215729 0.482878 0.107628 0.152822 0.230714 0.10046 -0.073176 -0.192897 0.0403325 0.137939 0.146482 0.0611436 -0.099529 -0.0772733 0.249016 -0.110574 -0.324036 -0.166421 -0.131958 -0.355797 0.00389869 -0.188615 -0.0121025 -0.070483 0.079873 0.0180505 0.0982197 0.403903 -0.0220883 0.0233415 0.115322 -0.0347146 -0.198826 -0.313117 0.0973393 0.119165 0.0190015 -0.0890598 -0.113869 0.189053 -0.150412 -0.360933 -0.177313 -0.172039 -0.387443 -0.0386799 -0.232015 -0.0533391 -0.110027 0.0383033 -0.0214206 0.0568017 0.390634 -0.0586709 -0.0162662 0.0741755 -0.0796048 -0.23512 -0.346189 0.104524 -0.166474 -0.183422 -0.200899 0.0891088 -0.244758 -0.432456 -0.262958 -0.263099 -0.458127 -0.145178 -0.330991 -0.158804 -0.205564 -0.0675299 -0.138734 -0.0377738 0.278896 -0.147604 -0.113932 -0.0224902 -0.185659 -0.31831 -0.422163 -0.100685 -0.216533 -0.222031 0.0837555 -0.265184 -0.448729 -0.288542 -0.283332 -0.474215 -0.168334 -0.351876 -0.186805 -0.230179 -0.0804175 -0.164975 -0.0594815 0.297441 -0.168683 -0.137026 -0.0461487 -0.208894 -0.338274 -0.438749 -0.109719 -0.135003 0.167143 -0.178755 -0.372051 -0.194725 -0.189932 -0.398985 -0.0602145 -0.251797 -0.0847879 -0.129669 0.0195674 -0.0449271 0.0361572 0.350159 -0.0763416 -0.0361039 0.0556512 -0.10072 -0.250803 -0.360836 -0.034716 0.274287 -0.0639625 -0.285707 -0.101252 -0.0888179 -0.314729 0.0486237 -0.13728 0.0438856 -0.018218 0.1266 0.0687344 0.144233 0.440957 0.0230353 0.0733228 0.160786 0.0161208 -0.157838 -0.274028 0.41063 -0.0257023 -0.253688 -0.0780997 -0.0545781 -0.285783 0.0800246 -0.0938132 0.068999 0.0142095 0.148379 0.0962477 0.165076 0.4416 0.0549907 0.0993447 0.180935 0.0491021 -0.124251 -0.242202 -0.326733 -0.497847 -0.412554 -0.345733 -0.5247 -0.238049 -0.414043 -0.251298 -0.289592 -0.147477 -0.247809 -0.128823 0.201885 -0.232877 -0.20443 -0.117487 -0.277685 -0.398706 -0.488836 -0.232438 -0.0429865 -0.0319839 -0.262458 0.114403 -0.0646958 0.106382 0.041522 0.188813 0.131066 0.206935 0.490235 0.0868615 0.13538 0.223268 0.0801381 -0.102118 -0.22048 0.191373 0.202451 -0.0332945 0.356905 0.184289 0.314726 0.266857 0.400914 0.350777 0.40146 0.626037 0.321888 0.346827 0.43855 0.303759 0.135185 0.0125899 0.010996 -0.222725 0.144739 -0.00827105 0.131721 0.079818 0.211596 0.153946 0.227709 0.498111 0.120082 0.165245 0.242645 0.114145 -0.0590799 -0.179551 -0.270816 0.186733 -0.0226778 0.121371 0.0686195 0.229547 0.149373 0.228081 0.51566 0.141107 0.167801 0.273538 0.10131 -0.11509 -0.192251 0.365726 0.216285 0.343419 0.296296 0.441659 0.403485 0.428511 0.667495 0.382188 0.438591 0.490332 0.339495 0.172838 0.0467577 -0.193994 -0.0137941 -0.073569 0.0962648 -0.0152485 0.102035 0.424451 -0.0202685 0.0273734 0.128693 -0.0573749 -0.21389 -0.316595 0.176359 0.111758 0.271916 0.211474 0.290723 0.570926 0.162437 0.214835 0.309467 0.156795 -0.0518002 -0.173163 0.179437 0.0963657 0.0309525 0.117407 0.434729 -0.0114951 0.0370068 0.134388 -0.0218163 -0.189221 -0.303373 0.147999 0.0898968 0.166243 0.459664 0.045514 0.0941244 0.182871 0.0391054 -0.137967 -0.255175 -0.0379557 0.0147535 0.337441 -0.101418 -0.067903 0.0115215 -0.132415 -0.277438 -0.377311 0.091947 0.446818 -0.0449539 0.0809506 0.17305 -0.0483223 -0.220263 -0.332491 0.332969 -0.112777 -0.0740238 0.017935 -0.144037 -0.28414 -0.390803 -0.416268 -0.390314 -0.319531 -0.531467 -0.555786 -0.621311 0.106909 0.141059 -0.0262869 -0.186724 -0.294754 0.116231 -0.0533354 -0.226103 -0.341523 0.00499515 -0.307305 -0.407666 -0.17363 -0.289203 -0.122817
label 50 51 53 54 55 56 57 65 97 66 98 67 99 100 68 101 69 102 70 103 71 104 72 105 106 74 107 75 76 109 77 110 78 112 80 113 114 82 115 83 116 84 117 85 118 86 119 87 120 88 121 89 122 90
nr_sv 33 38 35 30 18 38 32 15 23 34 25 37 36 31 24 31 24 29 25 30 24 30 23 20 28 36 34 42 16 24 30 34 23 25 46 32 24 35 37 27 24 13 27 31 50 36 21 39 32 48 32 32 28 24
SV
0.2654117920325977 0.2578302494010226 0.0349296902459908 0.02376284404966594 0.003871044057610336 0.1774194025923995 0.00158016017599797 0.01115158733276322 0.009276904693651077 0.009304875844105668 0 0.06096855954260126 0.02551012042694055 0.01051235285565299 0.1442975189468198 0.02547335114832741 0.01469825000708723 0.009213121235229788 0.01341109648663207 0 0.0122048215996436 0.01080835212128914 0.01451737028606501 0.01458641274010096 0.01706241273147168 0.01009719065948067 0.01118634066899946 0.01226411738472109 0.01282359343910132 0.01392024455701421 0.01256892000551551 0.01191122237049262 0.01195582453244961 0.01485222080690692 0.01115666985387433 0.01053148938249855 0.01004897421279037 0.08875660884331908 0.3643587503699697 0.01979872330740806 0.01003741417954585 0.01023056646430452 0.0119046420155087 0.03282150544092836 0.0322769969462108 0.01447006434695772 0.03697236659122453 0.04271535505379073 0.03187277084137731 0.04340657155856911 0.03841921914427025 0.05339071644195645 0 6:5 7:6 8:2 9:2 10:2 11:3 12:3 13:2 14:2 15:2 16:2 17:8 18:8 19:1 30:3 31:6 32:6 33:6 34:8 35:6 36:8 37:5 
0 0 0 0 0 0 0 0 0 0 0 0 0 0 0 0 0 0 0 0 0 0 0 0 0 0 0 0 0 0 0 0 0 0 0 0 0 0 0.07407151715933381 0 0 0 0 0 0 0 0 0 0 0 0 0 0 6:5 7:6 8:3 9:2 10:2 11:2 12:3 13:2 14:3 15:2 16:2 17:8 18:8 19:1 30:3 31:6 32:6 33:9 34:7 35:6 36:7 37:5 
0 0 0 0 0 0 0 0 0 0 0.1679497512683791 0 0 0 0 0 0 0 0 0 0 0 0 0 0 0 0 0 0 0 0 0 0 0 0 0 0 0 0 0 0 0 0 0 0 0 0 0 0 0 0 0 0 6:5 7:7 8:2 9:2 10:2 11:2 12:2 13:3 14:2 15:3 16:3 17:8 18:8 30:5 31:6 32:8 33:6 34:6 35:6 36:7 37:5 
0 0 0 0 0 0 0 0 0 0 0 0 0 0 0 0 0 0 0 0 0 0 0 0 0 0 0 0 0 0 0 0 0 0 0 0 0 0 0 0 0 0 0 0 0 0 0 0 0 0 0 0 0.1979938151009405 6:6 7:7 8:2 9:2 10:2 11:2 12:2 13:2 14:2 15:2 16:2 17:9 18:8 19:1 29:1 30:5 31:6 32:6 33:6 34:6 35:7 36:7 37:5 
0 0.05548285602606284 0 0 0 0 0 0 0 0 0 0 0 0 0 0 0 0 0 0 0 0 0 0 0 0 0 0 0 0 0 0 0 0 0 0 0 0 0.2781610478141895 0 0 0 0 0 0 0 0 0 0 0 0 0 0 6:5 7:6 8:3 9:3 10:2 11:2 12:3 13:2 14:2 15:2 16:3 17:8 18:8 29:3 30:6 31:6 32:6 33:7 34:7 35:8 36:5 37:1 
0 0 0 0 0 0 0 0 0 0 0 0 0 0 0 0 0 0 0 0 0 0 0 0 0 0 0 0 0 0 0 0 0 0 0 0 0 0 0 0 0 0 0 0 0 0 0 0 0 0 0 0 0.27076033782807 5:1 6:6 7:7 8:2 9:2 10:2 11:3 12:2 13:2 14:2 15:2 16:2 17:8 18:8 30:5 31:6 32:7 33:6 34:6 35:6 36:7 37:6 
0.2237934560720384 0.1303960199223331 0.1022767629618448 0 0.05321061942965142 0 0.005735909979179304 0 0.01955139858567695 0.008322412690442097 0.03479359916687495 0 0.01549159578278875 0.008255083081762439 0.07190326857243529 0.01755288788129102 0.007654450140782964 0.005532909389169077 0.0120753014808506 0.01992368309165212 0.009258507392855209 0.009738314620489906 0.01079342224795423 0.01167029925036253 0.0073386006770236 0.008123395396421774 0.007692761031780706 0.005828314287379075 0.01107548800227544 0.01169853722916891 0.01191812867835317 0.009597355462255746 0.007874752052523026 0.01413126132572839 0.009625541417993318 0.003643554454917865 0.00814585251591902 0 0 0 0.006791802380180696 0.009808776308903965 0.008757589952789972 0 0 0.01254482889831733 0.01758908967886388 0 0 0 0 0 1 6:6 7:7 8:2 9:3 10:2 11:2 12:2 13:2 14:2 15:2 16:5 17:8 18:8 30:5 31:6 32:7 33:6 34:6 35:8 36:7 37:6 
0.8939300518896267 0.7848327364710131 0.7032898456952852 0.706587880354598 0.7976561902622445 0.8001472728367306 0.6409112400150565 0.5543992363264053 0.8022001279011688 0.5890876380239402 0.660564710151046 0.6347016653816477 0.8172630889369781 0.6817271459948251 0.6492742499916783 0.7719689812949192 0.8989753587515725 0.8131603484218388 0.7914022907790408 0.6219228659543524 0.7437708895761177 0.6676523187048063 0.785643617902291 0.920333303097005 0.9280021840534906 0.6882618078688367 0.7602876970021311 0.7820634981039337 0.8287320857170337 0.8387417690873684 0.7908319243096693 0.7387992345462681 0.7179789664330154 0.8698812003594547 0.706595225768953 0.5661978748012809 0.6809462395426417 0.6844366636989718 0.5039439920468938 0.7642527136189167 0.6773650135971487 0.7552784912886251 0.7264270977246075 0.8002453082748587 0.7745863239099976 0.80804146935108 0.9553481286098084 0.7501010318105533 0.8110746434727351 0.8194672720330322 0.7473592202328666 0.6437980140035588 0.9411595274293054 5:2 6:6 7:7 8:6 9:3 10:2 11:3 12:2 13:2 14:2 15:2 16:4 17:8 18:8 19:2 29:1 30:5 31:7 32:10 33:9 34:6 35:6 36:9 37:6 
0 0.0800279806133489 0 0 0 0 0 0 0 0 0.2813682030359517 0 0 0 0 0 0 0 0 0 0 0 0 0 0 0 0 0 0 0 0 0 0 0 0 0 0 0 0.2966497003009613 0 0 0 0 0 0 0 0 0 0 0 0 0 0 6:5 7:6 8:2 9:3 10:2 11:2 12:2 13:2 14:3 15:2 16:3 17:8 18:8 29:3 30:6 31:7 32:6 33:7 34:6 35:7 36:5 37:1 
0.8958742756279767 0.8342798487087287 0.7205366952081607 0.7577517533311173 0.7214544918057215 0.7834702042895856 0.6623532647464119 0.5578066862236757 0.8189297618878157 0.6100284046439203 0.5386573779292461 0.6422293517597201 0.8420979406389247 0.7071490385337346 0.6667615471147255 0.7950297950691879 0.9264303527502129 0.8387450479173291 0.8193449026152795 0.6368736398671941 0.7705995586973751 0.6919116455207176 0.8147426571532809 0.9528541598561372 0.95986838857178 0.7117593309296192 0.792720464869919 0.8036291416488217 0.8574869053104908 0.8687053827386684 0.8189178788718492 0.7650379181948005 0.7458682565883636 0.9034668122863251 0.7313773670418323 0.5860574042970044 0.7121871067660079 0.6949113689471672 0.357093534759827 0.7921558376519795 0.7059874624003749 0.7818769259056976 0.7526587455747888 0.8273468866037896 0.8024119716157869 0.8392622017882403 0.9856735168318537 0.772408673306808 0.8042884601366292 0.8478373754283296 0.7795624559302295 0.6443428551694573 1 5:2 6:7 7:7 8:5 9:3 10:2 11:2 12:2 13:2 14:2 15:2 16:2 17:8 18:8 29:6 30:7 31:6 32:6 33:8 34:7 35:8 36:5 37:1 
0.4607285929154959 0.594285095494239 0.2819309639527821 0.2804481581669501 0.2324438441417446 0.300321039697844 0.2066656969899173 0.1601502545688848 0.2513870773235454 0.189006567900853 0.1332494939024432 0.1884435344701781 0.2597356658724043 0.2222321009080069 0.2137439864684583 0.2915116483837263 0.2920468057477372 0.2812604034586126 0.2584977267845023 0.1749441455212452 0.2424762230037419 0.2174036968298833 0.2552926259837385 0.2995560213257559 0.2983971698411408 0.2233568849125546 0.2477248867898846 0.2529302713507944 0.2698638183661303 0.2736191612671204 0.2571033723188864 0.2406974812041879 0.2341667807790271 0.2845362560938827 0.2298459396665568 0.1838557817122906 0.2210617599680341 0.2022914608445413 0.2400626704104096 0.2462773910295884 0.2270700501000929 0.2461142291774877 0.2367336974928568 0.2522259964143844 0.2419335295335736 0.2648375091756348 0.3015506280227763 0.2264465007965946 0.2146711623103158 0.2643687103498701 0.2393113088930736 0.1862827523381865 1 6:6 7:8 8:2 9:2 10:2 11:3 12:4 13:2 14:2 15:2 16:2 17:8 18:8 19:1 30:5 31:6 32:7 33:9 34:6 35:6 36:7 37:6 
0 0 0 0 0 0 0 0 0 0 0 0 0 0 0 0 0 0 0 0 0 0 0 0 0 0 0 0 0 0 0 0 0 0 0 0 0 0 0 0 0 0 0 0 0 0 0 0 0 0 0 0 1 5:1 6:6 7:7 8:3 9:2 10:2 11:2 12:2 13:3 14:2 15:2 16:2 17:8 18:8 30:6 31:6 32:7 33:7 34:6 35:6 36:7 37:5 
0 0 0 0 0 0 0 0 0 0 0 0 0 0 0 0 0 0 0 0 0 0 0 0 0 0 0 0 0 0 0 0 0 0 0 0 0 0 0 0 0 0 0 0 0 0 0 0 0 0 0 0 0.7982557176273032 5:1 6:6 7:6 8:3 9:2 10:2 11:2 12:3 13:2 14:3 15:2 16:2 17:8 18:8 30:3 31:6 32:6 33:8 34:8 35:6 36:8 37:5 
0.09976919856632335 0 0 0 0 0 0 0 0 0 0 0 0 0 0 0 0 0 0 0 0 0 0 0 0 0 0 0 0 0 0 0 0 0 0 0 0 0 0 0 0 0 0 0 0 0 0 0 0 0 0 0 0 5:1 6:6 7:6 8:3 9:2 10:2 11:2 12:3 13:2 14:2 15:2 16:2 17:8 18:8 30:3 31:6 32:6 33:7 34:6 35:7 36:9 37:5 
0 0 0.02250466514754563 0 0 0 0.005839492201437259 0 0.008735267942807162 0.01415832495544557 0.3443274085692175 0 0.01720172222650196 0.01420776700726942 0 0.01330721565567009 0.005950150364602698 0.006316055172938244 0.0155945239349555 0.08131122279847193 0.01436148905397144 0.01263509112051369 0.01155382143372138 0.01720521875368346 0.01575874062859236 0.01598599457871012 0.01741559639138039 0.02078775277721591 0.01632494411175385 0.01689517281142993 0.01613646119597657 0.0137097747067608 0.01306023079239934 0.01360900633165309 0.01287662904854738 0.008296033830229772 0.01109127496159014 0 0 0.005653059023764176 0.008884185564666922 0.01714894199271197 0.01495253792331228 0.004650045189002973 0 0.01299884264458533 0.003372908299846533 0 0.004058158072720884 0 0 0 0.4728192896892771 5:1 6:5 7:7 8:3 9:2 10:2 11:2 12:2 13:2 14:2 15:2 16:3 17:9 18:8 19:1 29:5 30:7 31:6 32:6 33:7 34:6 35:7 36:6 37:1 
0.3691014620009331 0.006277738127201745 0.195766461950592 0.1962754955511096 0.2376998117917194 0.1350518151387266 0.2162312706084525 0.171332813444289 0.2567229494846996 0.1923965570886147 0 0.1542997863654698 0.26015654609206 0.2259507522515669 0.1884060547147424 0.2211976878328192 0.2919488471148756 0.2633975669846673 0.2615041970466635 0.186590166687644 0.2455781938474785 0.220815452253388 0.2579598147804544 0.3033766105510877 0.3043228421736669 0.2262190075347537 0.2485812958984952 0.2529363405945105 0.2746418692115792 0.2763196325281125 0.262234692904181 0.2437839024156472 0.2330872398835536 0.2853332140886173 0.2340629539829305 0.1843625013633111 0.2236380455180066 0.1743936167552235 0 0.2486480136910603 0.2255925783679441 0.2512136038633185 0.2388051271606274 0.2472092831641616 0.2353646007098563 0.2664063571583723 0.3039092957587824 0.2200564919205635 0.2143525300793806 0.2473569089931065 0.2319434205180347 0.1629838331351902 0 6:5 7:7 8:2 9:2 10:2 11:2 12:3 13:2 14:3 15:2 16:3 17:8 18:8 30:3 31:6 32:6 33:6 34:8 35:6 36:8 37:6 
0 0 0 0 0 0 0 0 0 0 0 0 0 0 0 0 0 0 0 0 0 0 0 0 0 0 0 0 0 0 0 0 0 0 0 0 0 0 0.1394367318879915 0 0 0 0 0 0 0 0 0 0 0 0 0 0.4028651353919784 6:5 7:6 8:4 9:3 10:2 11:2 12:2 13:2 14:2 15:2 16:2 17:8 18:8 19:2 29:3 30:6 31:7 32:7 33:7 34:7 35:7 36:5 37:1 
0 0 0.07497260629237389 0.03251287018906463 0.1081166216723405 0.05638170875845316 0.0881336637701803 0.08711303092702731 0.103829715503784 0.07903686886234668 0 0.08095145165639531 0.1150291272827961 0.09211137667511872 0.01215039049128682 0.09025895097734737 0.1187892652543028 0.1086926274244741 0.1075574381924043 0.1154853987454266 0.1004003567790297 0.09056789518210751 0.1059920435076334 0.1241750299320606 0.1237945173458798 0.09220577118885741 0.1020212218215297 0.1057676206883348 0.1115549391394943 0.1135247127922158 0.1070460498432456 0.1001514296214252 0.09662302769949922 0.1176015578307138 0.09612084794415809 0.07650530556998456 0.09060030312278479 0.1262620258537101 0 0.1012060962007879 0.09101360340588291 0.1027788086085627 0.09844646523158135 0.1047493132932651 0.09956980498258808 0.1122800599363734 0.1155396502699378 0.08594380709410314 0.1357567644645367 0.1028422315254903 0.09060298301627978 0.1575296811432512 0 6:5 7:6 8:2 9:4 10:2 11:2 12:2 13:2 14:2 15:2 16:3 17:9 18:8 19:2 29:2 30:3 31:6 32:6 33:6 34:7 35:7 36:8 37:5 38:1 
0 0 0.01927086063882359 0.1295103585449832 0.01943341042610843 0.08520105890420801 0.06163843101056914 0.08612325481489724 0.06418421785420804 0.05513620034280214 0.233404789835879 0.1270888026312669 0.07861347554574385 0.06238916701601123 0 0.06397832313549254 0.09191095719088153 0.08292369605210553 0.07404213416995754 0.07050157565843868 0.06828065615046362 0.06067028318644339 0.08011718807112764 0.08293731219104138 0.09010944878353709 0.06341022323538305 0.07207950215063486 0.080894545575521 0.07472637925640639 0.07628275531633645 0.07148284387513659 0.06726178684239312 0.06721941822797715 0.07709218913316948 0.06430764997446771 0.05802299687417799 0.06261004327207594 0.1097209724636984 0.3533800759825664 0.08060907215489364 0.06342315485009271 0.06904888092381904 0.0672879034947433 0.09483444851472431 0.1032679271352162 0.07376187682084102 0.08554700092408464 0.112244923014347 0.138685070413844 0.1009087274336925 0.08483263719140413 0.09099919078515833 0 6:5 7:6 8:2 9:2 10:2 11:2 12:2 13:2 14:2 15:2 16:5 17:8 18:8 30:3 31:6 32:7 33:7 34:6 35:7 36:7 37:5 
0 0 0 0 0 0 0 0 0 0 0 0 0 0 0 0 0 0 0 0 0 0 0 0 0 0 0 0 0 0 0 0 0 0 0 0 0 0 0.3860101327995678 0 0 0 0 0 0 0 0 0 0 0 0 0 0 6:5 7:6 8:2 9:2 10:2 11:2 12:2 13:3 14:2 15:2 16:2 17:8 18:8 19:1 30:3 31:6 32:6 33:6 34:6 35:8 36:7 37:5 
0 0 0 0.1135106664264654 0 0 0 0 0 0 0 0 0 0 0 0 0 0 0 0 0 0 0 0 0 0 0 0 0 0 0 0 0 0 0 0 0 0 0 0 0 0 0 0 0 0 0 0 0 0 0 0 0 6:6 7:6 8:2 9:2 10:2 11:2 12:2 13:2 14:2 15:2 16:2 17:8 18:8 30:3 31:6 32:6 33:6 34:6 35:6 36:8 37:5 
0 0 0 0 0 0 0 0 0 0 0 0 0 0 0 0 0 0 0 0 0 0 0 0 0 0 0 0 0 0 0 0 0 0 0 0 0 0 0 0 0 0 0 0 0 0 0 0 0 0 0 0 1 5:2 6:6 7:7 8:2 9:2 10:3 11:2 12:2 13:2 14:2 15:2 16:2 17:8 18:8 19:1 30:4 31:6 32:7 33:6 34:7 35:8 36:8 37:5 
0.2062767119552072 0.3245880417276561 0.1478014084163881 0.2222082650633173 0.1703059670782744 0.2089952289089717 0.14188144766858 0.1445645020082276 0.1765806463801725 0.1332528152301548 0.1353676157544544 0.1766642748364244 0.1849055913444271 0.1535351231363916 0.205876927446426 0.1630747510692299 0.2068483865552399 0.1889468852115346 0.1794836502507869 0.1288931100140561 0.1689594671176788 0.1512552644942469 0.1782440493525604 0.2089450047094066 0.2119617935660347 0.1608020781213687 0.1773423166253782 0.1848588475405763 0.1881010826596757 0.1895161761808024 0.178050679126267 0.1669658885134881 0.1652747815051951 0.199490912812075 0.1608517346959503 0.1273566141493817 0.1535477202142086 0.1760641165302631 0.0407300082836753 0.1758965052183425 0.1556037123531598 0.1703558335158197 0.1642414817862458 0.1917858737999748 0.1904132445479832 0.1845452745578457 0.2279564598899478 0.1879460409571443 0.2412657849099577 0.1944125595386566 0.1839265387749376 0.162657201838554 0.5818787093950575 6:5 7:7 8:2 9:3 10:3 11:2 12:2 13:3 14:2 15:2 16:2 17:8 18:8 29:4 30:6 31:7 32:6 33:6 34:7 35:7 36:5 37:1 
0 0 0 0 0 0 0 0 0 0 0 0 0 0 0 0 0 0 0 0 0 0 0 0 0 0 0 0 0 0 0 0 0 0 0 0 0 0 0 0 0 0 0 0 0 0 0 0 0 0 0 0 0.2138841505889704 6:6 7:7 8:4 9:2 10:2 11:2 12:2 13:2 14:2 15:2 16:2 17:8 18:8 19:1 29:2 30:5 31:6 32:6 33:6 34:7 35:6 36:7 37:5 
0 0 0 0 0 0 0 0 0 0 0.08073040062319832 0 0 0 0 0 0 0 0 0 0 0 0 0 0 0 0 0 0 0 0 0 0 0 0 0 0 0 0 0 0 0 0 0 0 0 0 0 0 0 0 0 0 6:5 7:6 8:2 9:2 10:2 11:2 12:2 13:2 14:2 15:2 16:2 17:8 18:8 19:1 30:3 31:7 32:6 33:6 34:6 35:6 36:7 37:5 
0.4299851968122353 0.3834111924852844 0.2378369168505422 0.2781871960547991 0.2586639074140725 0.304725907885011 0.2563169980637945 0.2596621189369347 0.311168663040248 0.2350627299206373 0 0.2473797395443132 0.3210601116411768 0.2739119676718083 0.3050564650693188 0.2899058951932847 0.3568906857933102 0.321472848547162 0.31630857599462 0.1965796537409377 0.2988856713140994 0.267976564972516 0.3121855823116644 0.3724061079020351 0.3817346499656073 0.2768393318129124 0.3052422742459739 0.3108118537618039 0.3339273592132359 0.3367721811979907 0.3179633113591561 0.2973087136258634 0.288193050563004 0.3481100857403609 0.2838197093296627 0.2271222857514924 0.2737762302534598 0.2729722947712971 0.1424355463521048 0.3130322215355488 0.2710976814590646 0.3041886306818744 0.2922009375429391 0.3348803651800408 0.3082638777180354 0.3218516070271126 0.3985418911271041 0.3209871263761552 0.3331691507295683 0.3313100039310555 0.3071917069939836 0.2782175883749077 0 6:5 7:6 8:2 9:3 10:2 11:2 12:2 13:2 14:2 15:2 16:3 17:8 18:8 19:1 30:3 31:6 32:6 33:6 34:6 35:9 36:7 37:5 
0 0 0 0 0 0 0 0 0 0 0.2878907799011689 0 0 0 0 0 0 0 0 0 0 0 0 0 0 0 0 0 0 0 0 0 0 0 0 0 0 0 0 0 0 0 0 0 0 0 0 0 0 0 0 0 0.1283669659738569 5:1 6:5 7:7 8:4 9:3 10:2 11:3 12:2 13:2 14:3 15:2 16:2 17:8 18:8 29:5 30:7 31:7 32:6 33:8 34:6 35:7 36:5 37:1 
0 0 0 0 0 0 0 0 0 0 0 0 0 0 0 0 0 0 0 0 0 0 0 0 0 0 0 0 0 0 0 0 0 0 0 0 0 0 0 0 0 0 0 0 0 0 0 0 0 0 0 0 0.1220726303011878 6:5 7:7 8:3 9:3 10:3 11:2 12:2 13:3 14:2 15:2 16:2 17:8 18:8 19:1 30:4 31:6 32:6 33:7 34:7 35:9 36:7 37:5 
0 0 0 0 0 0 0 0 0 0 0 0 0 0 0 0 0 0 0 0 0 0 0 0 0 0 0 0 0 0 0 0 0 0 0 0 0 0 0 0 0 0 0 0 0 0 0 0 0 0 0 0 0.5685295207041061 6:6 7:7 8:2 9:2 10:2 11:2 12:2 13:2 14:3 15:2 16:2 17:8 18:8 30:5 31:7 32:6 33:6 34:6 35:6 36:7 37:5 
0 0 0 0 0 0 0 0 0 0 0 0 0 0 0 0 0 0 0 0 0 0 0 0 0 0 0 0 0 0 0 0 0 0 0 0 0 0 0.5688392447897306 0 0 0 0 0 0 0 0 0 0 0 0 0 0 5:1 6:5 7:6 8:3 9:2 10:2 11:3 12:2 13:2 14:2 15:2 16:4 17:8 18:8 30:3 31:6 32:8 33:7 34:8 35:6 36:7 37:5 
0.0800583713431845 0.1350257513566308 0.1746787266094645 0.1377538321825151 0.1368317393963333 0.1436407298308892 0.1253089261070338 0.09499194341840361 0.1520870422526134 0.1210782738853932 0.6122416315608932 0.1275808749700563 0.1632994219482175 0.1340173532598893 0.099049653038079 0.1505646697416592 0.174130590480626 0.1506710378455705 0.1528189242044495 0.2183909008030592 0.1456953693278313 0.1295090659807684 0.1508866988780974 0.1785230951129931 0.1828978870965448 0.1354744202149454 0.1517232936690058 0.1533647197032434 0.1606857129464355 0.1628814455245872 0.1535112881143277 0.1430729100036847 0.1437713028092619 0.1685775487870084 0.1374406836980735 0.1106672635189657 0.1365239357768183 0.1185879665915063 0 0.1512847906973475 0.1303928025302087 0.1495907427819164 0.1433609219460671 0.1595646004122454 0.1612898091576915 0.1570153884339785 0.1778969169493134 0.1536887499567557 0.197219286437925 0.1633960157930195 0.1570586696516344 0.1137666047658365 0.2470723677722718 6:6 7:7 8:3 9:4 10:2 11:3 12:2 13:2 14:2 15:2 16:3 17:8 18:8 19:1 29:1 30:7 31:6 32:6 33:6 34:7 35:6 36:7 37:7 
0.5918776268946377 0.5881477897131409 0.3820237162663851 0.3518100121613206 0.3632532930025799 0.4485605098458815 0.3359411798043685 0.3272148208451093 0.3977201000565977 0.2972016482465927 0.3859754016639988 0.3606426924602906 0.4123072110781749 0.3413517446118218 0.5053014064467074 0.3923683446336496 0.4604852295904571 0.4139493629746325 0.3954222549685848 0.2998241924213392 0.372229799378174 0.3348876840979091 0.3958028443824106 0.4603305136456484 0.4672456418098244 0.3458206163721012 0.3804097881729218 0.3964465859389347 0.4150150544886568 0.4195776995814998 0.3973494030653275 0.37027118330481 0.3596824289856984 0.4361249564078439 0.3531703552190422 0.2897513232671112 0.3424085410397422 0.4017458717193967 0.5015045652505867 0.3971490468135588 0.3400087390542949 0.3793953229681609 0.3633226510940963 0.4188321447302539 0.4107346579979546 0.4061801267482973 0.4914152278150937 0.397268071893386 0.4747327347799167 0.4511951827216905 0.3927499085790472 0.4024909629327019 0.6971439418983193 6:5 7:6 8:2 9:4 10:2 11:3 12:3 13:2 14:2 15:3 16:2 17:8 18:8 19:1 29:4 30:6 31:6 32:8 33:7 34:7 35:7 36:5 37:1 
0.4379601625544611 0.7177480032412328 0.4793309846776973 0.4040411623534307 0.4472658121245823 0.5073223694094091 0.3801032947021927 0.3316116932168064 0.4773369373527095 0.3501006392646047 0.9987253747340838 0.3772951929645804 0.4811660481295894 0.3970368627239244 0.3975549278480577 0.4701220263187521 0.5265386013762098 0.4781631127338557 0.4604664601876782 0.371635146846381 0.4340516844781153 0.389474433165128 0.4628470001774184 0.5372460518802928 0.5521372881332368 0.4106175521363288 0.4539654565758774 0.4691093785862567 0.4834532554592582 0.4896848300432233 0.4619054116440232 0.4308647615415975 0.4285661172443149 0.5124186341747541 0.4113167329680205 0.3316599417529736 0.4054586134942459 0.3976318183545606 0.3815510672522318 0.4455145880116249 0.393992488333075 0.4423303805866282 0.4246815177686862 0.4723689662984283 0.4710517984279813 0.4739068623903812 0.5774612117449797 0.4503681006652634 0.5242401837678136 0.4822500001716193 0.4371866518006975 0.376443703312314 0.2082362467785541 6:5 7:7 8:5 9:2 10:2 11:2 12:2 13:3 14:4 15:2 16:2 17:8 18:8 30:6 31:9 32:6 33:6 34:7 35:6 36:7 37:5 
-0.07746941706876335 0.1343548792112809 0 0 0 0 0 0 0 0 0 0 0 0 0 0 0 0 0 0 0 0 0 0 0 0 0 0 0 0 0 0 0 0 0 0 0 0 0.3829007758930854 0 0 0 0 0 0 0 0 0 0 0 0 0 0.3068583743077584 5:1 6:5 7:7 8:2 9:2 10:2 11:5 12:6 13:3 14:2 15:3 16:3 17:6 18:5 19:1 30:6 31:6 32:7 33:7 34:9 35:10 36:7 37:1 
-0 0 0.08273806299229522 0 0 0 0 0 0 0 0 0 0 0 0 0 0 0 0 0 0 0 0 0 0 0 0 0 0 0 0 0 0 0 0 0 0 0 0 0 0 0 0 0 0 0 0 0 0 0 0 0 0 6:5 7:8 8:3 9:2 10:2 11:6 12:6 13:3 14:2 15:3 16:4 17:9 18:6 29:2 30:6 31:6 32:6 33:6 34:9 35:11 36:9 37:4 
-0.03865671053979582 0.1334080441718321 0.1711068223970748 0.156749760899616 0.4710656534486032 0.5074211480723254 0.1538587967385988 0.1245075036775567 0.2265877143571565 0.1348908911074571 0.1442119092083186 0.1437609680728606 0.2464461046181279 0.1583435441481477 0.1316200434504783 0.1761336998531932 0.2525625418850442 0.2014908933459468 0.1984145114676936 0.1379568277961336 0.1799107363200647 0.1542650288186955 0.1931999566590624 0.2557028979400369 0.2626893172126042 0.1609831717810741 0.1859591814293598 0.1922938018632286 0.2110173575324892 0.2154052108129452 0.1980312585276552 0.1753306355761304 0.1736775562419214 0.2345662934418376 0.1690012437548829 0.1241397264373971 0.1719440802981018 0.1575504436218777 0 0.1883210208552037 0.1473402465931663 0.1840407691577129 0.1725722066814848 0.2045146050847038 0.2121448657654712 0.2041993076149315 0.277629627688156 0.1894162960648881 0.2811968552008381 0.2100315528880523 0.1815510056216685 0.154653699212361 0.1000828246614669 6:6 7:8 8:3 9:5 10:4 11:5 12:6 13:3 14:2 15:2 16:4 17:6 18:5 29:1 30:4 31:6 32:7 33:6 34:6 35:10 36:11 37:8 
-0.2161254370623768 0 0.1463944695216619 0.2958393325810333 0.09164508483390318 0.2180950160783994 0.2941834079499146 0.2648999123665851 0.304370318855558 0.2373131009523186 0.2099336119074533 0.2735041230929901 0.380319971959465 0.2951434375691133 0.3085984407400434 0.3027621187764324 0.4514763496872761 0.3736328404354035 0.364785994428949 0.2535315116422165 0.3335892940753016 0.2854410631781606 0.3617722221530574 0.4711848697809862 0.4836500242177957 0.2940760586625702 0.3372471767991702 0.3574232614039072 0.393401772185383 0.4010746788633633 0.3645955643915464 0.3262257332568039 0.3107593549496839 0.4211177280856375 0.3036348755827394 0.2304667673999846 0.2855441568904624 0.327985452189274 0 0.3898845573132561 0.2893979951434847 0.338183601995181 0.3185835805524406 0.3824969796511035 0.3304880203268517 0.3817396322336906 0.5071402315769774 0.3620438992826793 0.3727139185517475 0.3994208016757839 0.3456300522033892 0.288270350362528 0.1769893206691177 6:5 7:7 8:2 9:3 10:3 11:5 12:6 13:3 14:4 15:3 16:4 17:6 18:5 19:1 30:6 31:7 32:6 33:8 34:12 35:10 36:7 37:1 
-0.4328257578996137 0.5438062233983475 0.5145989561668842 0.5409538644937675 0.4914037936741733 0.725333425579287 0.4884932893532976 0.409667734092424 0.651304870681028 0.4443931224822594 0.4461772678559773 0.4942830093070694 0.7078293343289299 0.5413205211340819 0.4160743191136551 0.6084755969770125 0.8141698520629868 0.690308278250338 0.6694407422432507 0.4738352972368168 0.6116379266248189 0.5255794339395089 0.6617857312727896 0.8561084501792101 0.8670629192050306 0.5497216727787011 0.6302302912114893 0.6575052242809645 0.7211890872407566 0.7355901359690781 0.6695803326135035 0.5994027173516678 0.582728767114049 0.7801662391610474 0.5573171630729283 0.4218054611004116 0.5390332534174699 0.5484138427953665 0.401539780044148 0.631548621693768 0.5035200038473883 0.6216853257388353 0.584820295370812 0.6875675407166766 0.6419662431599569 0.6955259733820068 0.9090160753874573 0.6233417331682116 0.7034872003203779 0.7087791578155128 0.6143334399276315 0.5091342621143533 0.3988094900191999 5:1 6:5 7:8 8:5 9:3 10:5 11:5 12:6 13:3 14:2 15:2 16:4 17:6 18:5 29:2 30:1 31:2 32:6 33:6 34:9 35:7 36:9 37:10 38:8 
-0.3277128725896043 0.3929670769613228 0.3498682591998827 0.3835395138100726 0.3509787727846397 0.5080808826751201 0.3476617586071843 0.290153792927041 0.421199233526301 0.3100832699670155 0.3352756645111194 0.3490868824279598 0.4954744584791005 0.380611552658252 0.4721872444166724 0.4244396517536689 0.575271027234194 0.4936858427510743 0.471224864163992 0.3327922252108314 0.430661591150626 0.3702019183621263 0.4658135924774706 0.6013405295871985 0.6116234142898423 0.3838864923244771 0.4395466420353998 0.462935707924601 0.508353167325972 0.5183253272207895 0.4715168754871141 0.4226495669534277 0.4071142807504322 0.5476144863797811 0.3927646408141604 0.297375793979672 0.3714186971918637 0.3803510114948552 0.2078633778816082 0.4443208414899816 0.3549163135217143 0.4376078160259954 0.4117313729765891 0.4817686351404817 0.4399381240837424 0.4889643076839212 0.6605087138060073 0.4347443644817805 0.4659922153391489 0.5009126167405302 0.4274076292837949 0.3554750997454825 0.3409227737900883 5:1 6:5 7:8 8:5 9:2 10:3 11:5 12:6 13:4 14:2 15:3 16:3 17:8 18:5 19:1 29:3 30:7 31:6 32:10 33:6 34:10 35:10 36:8 37:1 
-0 0 0 0 0 0 0 0 0 0 0 0 0 0 0 0 0 0 0 0 0 0 0 0 0 0 0 0 0 0 0 0 0 0 0 0 0 0 0.3995680780955259 0 0 0 0 0 0 0 0 0 0 0 0 0 0 6:5 7:8 8:2 9:2 10:2 11:5 12:6 13:4 14:2 15:2 16:3 17:6 18:5 30:1 31:6 32:7 33:6 34:6 35:9 36:10 37:7 
-0 0 0 0.02137261925865411 0 0.2619535986662407 0 0.003336848046870907 0 0 0 0 0 0 0.3005549849333315 0 0 0 0 0 0 0 0 0 0 0 0 0 0 0 0 0 0 0 0 0 0 0.0315852589074437 0 0 0 0 0 0.003439938041620326 0.014412279946285 0 0.02262251532869963 0.02771186069467292 0.1474838989248524 0.01573806561564971 0.005846756861538524 0 0 6:5 7:7 8:2 9:2 10:3 11:5 12:6 13:4 14:2 15:2 16:3 17:6 18:5 30:6 31:6 32:7 33:6 34:9 35:10 36:8 
-0 0 0 0 0 0.02221999856483737 0 0 0 0 0 0 0 0 0 0 0 0 0 0 0 0 0 0 0 0 0 0 0 0 0 0 0 0 0 0 0 0 0 0 0 0 0 0 0 0 0 0 0 0 0 0 0 6:5 7:9 8:4 9:3 10:2 11:5 12:6 13:4 14:2 15:2 16:3 17:7 18:5 29:2 30:3 31:6 32:6 33:6 34:7 35:10 36:10 37:7 
-0 0.0227247358421339 0 0 0 0 0 0 0 0 0 0 0 0 0 0 0 0 0 0 0 0 0 0 0 0 0 0 0 0 0 0 0 0 0 0 0 0 0 0 0 0 0 0 0 0 0 0 0 0 0 0 0 6:5 7:8 8:3 9:2 10:2 11:5 12:6 13:3 14:2 15:4 16:4 17:6 18:5 29:1 30:6 31:7 32:6 33:6 34:9 35:10 36:7 37:2 38:1 
-0 0.284176758207884 0 0 0 0 0 0 0 0 0 0 0 0 0 0 0 0 0 0 0 0 0 0 0 0 0 0 0 0 0 0 0 0 0 0 0 0 0.974252693783587 0 0 0 0 0 0 0 0 0 0 0 0 0 0 6:5 7:7 8:3 9:2 10:3 11:5 12:6 13:3 14:2 15:2 16:4 17:6 18:5 30:6 31:8 32:6 33:7 34:9 35:10 36:7 
-0.3169938095687058 0 0 0 0 0 0 0 0 0 0 0 0 0 0 0 0 0 0 0 0 0 0 0 0 0 0 0 0 0 0 0 0 0 0 0 0 0 0 0 0 0 0 0 0 0 0 0 0 0 0 0 0 6:5 7:7 8:3 9:2 10:2 11:5 12:6 13:3 14:2 15:2 16:4 17:8 18:6 29:1 30:3 31:6 32:7 33:6 34:6 35:9 36:10 37:7 
-0.3907450039855006 0 0 0 0 0 0 0 0 0 0 0 0 0 0 0 0 0 0 0 0 0 0 0 0 0 0 0 0 0 0 0 0 0 0 0 0 0 0 0 0 0 0 0 0 0 0 0 0 0 0 0 0.1883810375893692 6:5 7:8 8:2 9:2 10:2 11:5 12:6 13:3 14:2 15:2 16:3 17:8 18:6 30:3 31:6 32:6 33:6 34:6 35:9 36:10 37:8 
-0 0 0 0 0 0 0 0 0 0 0 0 0 0 0.2183153018452228 0 0 0 0 0 0 0 0 0 0 0 0 0 0 0 0 0 0 0 0 0 0 0 0 0 0 0 0 0 0 0 0 0 0 0 0 0 0 6:6 7:8 8:3 9:2 10:2 11:5 12:6 13:3 14:3 15:2 16:3 17:6 18:5 29:2 30:6 31:6 32:6 33:6 34:10 35:10 36:7 37:1 
-0 0 0 0.03286986138461398 0 0 0 0 0 0 0.04656959269905123 0 0 0 0 0 0 0 0 0 0 0 0 0 0 0 0 0 0 0 0 0 0 0 0 0 0 0 0 0 0 0 0 0 0 0 0 0.04191841346531351 0 0 0 0 0 6:5 7:7 8:2 9:2 10:2 11:5 12:6 13:3 14:2 15:2 16:4 17:6 18:5 30:6 31:7 32:6 33:6 34:9 35:10 36:7 
-0.2625034516713683 1 0.7090924605033263 0.2184574444286025 0.4941995634726759 0.3834400803255302 0.1878711863130971 0.1317498843643718 0.2701446150483862 0.1589564545976843 0.2399501152155216 0.1718677028674895 0.2454890967623196 0.1925849627395361 0.1175766251645944 0.2834324855160961 0.2889467155682286 0.2547638926039376 0.2346935092211402 0.2260433222936309 0.2163278186467071 0.1858527882135892 0.2358744852278214 0.3013023355611411 0.3047387400625509 0.1940507127803182 0.2230177822271071 0.232941743844849 0.2551582441306645 0.2608748302210602 0.2375319897714842 0.2120538720797974 0.2083544678128251 0.278531417033708 0.1956868735501747 0.1492728477365165 0.2048818982759238 0.1771883362834092 0.08723149409966957 0.2203451093362649 0.1784186087840351 0.2201143904106246 0.2070301070410893 0.2375168922672811 0.2272055763856881 0.2460747946950988 0.3248412545047175 0.208717269462725 0.2563138353245558 0.2494655911380405 0.2135562370654 0.1694496496499114 0.3042898786266632 5:2 6:7 7:8 8:2 9:2 10:2 11:5 12:6 13:4 14:3 15:2 16:6 17:7 18:5 28:1 29:2 30:4 31:7 32:7 33:7 34:6 35:9 36:10 37:7 38:1 
-0.1476386628566096 0.5450196562401609 0.6872989436674668 0.1850900216452181 1 0.2828049804062557 0.2029512214291589 0.1935978355607827 0.4803816862180434 0.1872475071466109 0.2424827400158305 0.1881455051503569 0.2820375336384396 0.195779386113692 0.1458369991287292 0.3056676856254882 0.2940099267434204 0.2627509910457826 0.2458979584378805 0.170682513303179 0.2217998410703377 0.1911721748213683 0.2399358767931222 0.3075538545430985 0.317235878429613 0.2211215458810228 0.2518107257046061 0.2402351232090377 0.2617817310655225 0.2688528902551871 0.2427563069074995 0.217381109462974 0.229895323786782 0.2967227846995177 0.2048070369281849 0.1535141672402613 0.2333539585440206 0.2000907171671636 0.2003933514296538 0.2172426709354029 0.1775626555459238 0.2255795851912171 0.2121282529386743 0.2605327524964606 0.3404575746904464 0.2525708721716255 0.3451070414519635 0.2412284312663987 0.3248292394082091 0.2606093930404244 0.2135114090643241 0.1862554724627544 0.1437476193179041 5:1 6:5 7:7 8:3 9:2 10:3 11:5 12:6 13:4 14:4 15:2 16:6 17:7 18:5 19:1 29:2 30:8 31:9 32:7 33:7 34:10 35:10 36:7 37:1 
-0 1 0.00573245270584289 0 0 0 0 0 0 0 0 0 0 0 0 0 0 0 0 0 0 0 0 0 0 0 0 0 0 0 0 0 0 0 0 0 0 0 0 0 0 0 0 0 0 0 0 0 0 0 0 0 0.0975495444983499 6:6 7:8 8:4 9:2 10:3 11:5 12:6 13:3 14:2 15:2 16:3 17:7 18:5 30:4 31:7 32:6 33:7 34:6 35:9 36:10 37:7 
-0.5360634490968081 0 0 0 0 0 0 0 0 0 0 0 0 0 0 0 0 0 0 0 0 0 0 0 0 0 0 0 0 0 0 0 0 0 0 0 0 0 0 0 0 0 0 0 0 0 0 0 0 0 0 0 0.01743142021858621 6:5 7:7 8:3 9:2 10:2 11:5 12:6 13:3 14:2 15:2 16:3 17:7 18:6 29:2 30:6 31:6 32:6 33:6 34:9 35:10 36:7 37:1 
-0.1949901365136664 0.1928698658401805 0.3494756429270938 0.3307874096049301 0.4609627434025 0.4430462759851538 0.3168971596248942 0.2700391991642595 0.4471187623668436 0.2923399618598185 0.2665115032668476 0.3232318785496744 0.4679600731175129 0.3555720380620725 0.2519190722452557 0.3998837082028786 0.5308014770476772 0.4483879808646659 0.4401787079905047 0.3036758701454422 0.4023881408542381 0.3453620038676645 0.4340474649760263 0.5631901802157983 0.5708297684676288 0.3612905277298142 0.4138500978957759 0.4317929917541007 0.4749397634538933 0.4842472585863194 0.4398374430930633 0.3945819279150221 0.382893942014444 0.5106164776043132 0.3680549351191791 0.2774094561882042 0.3554042285325189 0.3526983974659317 0 0.4128413239174541 0.3301066632510651 0.4084775671183406 0.3844470662752151 0.4426669414647839 0.4144445697574614 0.4569053899838968 0.5780016091428617 0.3989148463517138 0.3644667948497464 0.4580032896425645 0.3899557567300614 0.3283787764983475 0.2377487063143422 6:5 7:8 8:5 9:3 10:3 11:6 12:6 13:3 14:2 15:2 16:3 17:7 18:7 19:2 30:4 31:7 32:6 33:7 34:8 35:10 36:13 37:7 
-0 0.4361918959287332 0.1551263029895266 0 0 0 0 0 0 0 0 0 0 0 0.2914962729369244 0 0 0 0 0 0 0 0 0 0 0 0 0 0 0 0 0 0 0 0 0 0 0 0.1174301287416529 0 0 0 0 0 0 0 0 0 0.07312580746590359 0 0 0 0 6:5 7:7 8:2 9:2 10:2 11:5 12:6 13:4 14:2 15:3 16:3 17:6 18:5 30:6 31:6 32:6 33:7 34:9 35:10 36:7 37:1 
-0 0 0 0.03079567816642697 0 0 0.01879563123524038 0 0.009295487222857354 0.03244197874236505 0 0.02825618511505217 0.04446343290557718 0.04873319197821949 0.08123989282053919 0.03113762386641691 0.06807967918910648 0.05984839327280001 0.05990265852429652 0.03521252903725314 0.05500319170850882 0.04848047064498841 0.05881671211632696 0.07739764477615656 0.07365756098444522 0.04324957641386466 0.05185986755109957 0.05892311869355858 0.06531311101253141 0.06599607739049161 0.06049350841215009 0.05449233239651207 0.04733896355838331 0.06398055594752031 0.04943289244278801 0.03809554918608325 0.03212282638963008 0.01209229892707068 0 0.03396693719879213 0.04162206400772706 0.05576271787383312 0.05226520775597444 0.03838745977125586 0.01666219567725868 0.06058998502385815 0.06785206236626903 0.01409135740042509 0 0.04403184678481583 0.03959197950773298 0.02480389413531186 0 6:5 7:7 8:4 9:2 10:2 11:5 12:6 13:4 14:3 15:2 16:3 17:6 18:6 19:1 30:6 31:8 32:6 33:7 34:11 35:11 36:7 
-0 0 0 0 0 0 0 0 0 0 0 0 0 0 0 0 0 0 0 0 0 0 0 0 0 0 0 0 0 0 0 0 0 0 0 0 0 0 0.07396582552610326 0 0 0 0 0 0 0 0 0 0 0 0 0 0 5:1 6:5 7:8 8:5 9:2 10:3 11:5 12:6 13:3 14:2 15:2 16:3 17:6 18:5 29:1 30:2 31:6 32:7 33:7 34:7 35:9 36:10 37:7 
-0 0 0.05608400360119644 0.1433054926248012 0.053298324070263 0.01579646125231294 0.1678056977798673 0.1818560768318394 0.1959542508010571 0.1467872013046755 0.1312378296480509 0.1714800684647938 0.2519267978325658 0.1783457552294547 0.1516153118098038 0.173519317891274 0.2664953665592109 0.2212629844873809 0.2253439031161908 0.1494073885300239 0.2025688908435655 0.1745048869179006 0.2196783702516943 0.2844238547610173 0.2929409592365073 0.1818043844464403 0.2084465978602583 0.2175939385432066 0.2390324154368758 0.243423967616146 0.2216103711881084 0.1990333510907664 0.1913068201601282 0.2550523046925063 0.1884160883024216 0.1397230815591234 0.1680855435004979 0.2104124261784376 0.1930763474198204 0.2093386915532764 0.1660885686399989 0.2075846856849559 0.1941681422240863 0.242236804763452 0.2194848317352965 0.2309813979881252 0.3034026789135428 0.2346585960632482 0.2359093101081573 0.2367890544205327 0.1948735504401067 0.1753924772581446 0 6:5 7:7 8:2 9:2 10:2 11:5 12:6 13:3 14:2 15:3 16:6 17:8 18:5 29:2 30:2 31:6 32:7 33:6 34:6 35:10 36:10 37:7 
-0.1885450195621798 0.2150815124996367 0 0.03148213745767291 0 0.04392095055745589 0.01669496732640696 0.02132557906788006 0 0.02708144334797766 0.04894261657586551 0.02627956715012544 0.05127307776292864 0.03626740149869903 0.1455411753630355 0.02076238735004794 0.05156156066227724 0.03813713058760468 0.04347534891485751 0.03934297118890246 0.04060266549790095 0.03361541698200018 0.04171821277279734 0.05399651727021967 0.05027804928200068 0.03050840414559425 0.03596290808038148 0.04189643938376015 0.04608997104191522 0.04642108059898761 0.04344241638243375 0.03825831259531162 0.02805547844056439 0.04049181095426208 0.0368766364824619 0.02632944810308124 0.01932568126107178 0.03083132603523311 0 0.03539742644837457 0.03355462720461828 0.04123599516943902 0.03700128133219278 0.03525305241989517 0 0.04416517355665472 0 0.01572381435483206 0.02632495345806208 0.04013320587777186 0.03722779264374522 0.0307021027633845 0.3459122000398626 6:6 7:8 8:3 9:3 10:2 11:5 12:6 13:3 14:2 15:2 16:4 17:8 18:6 19:1 29:4 30:6 31:6 32:6 33:7 34:9 35:11 36:8 37:2 
-0 0 0 0 0 0 0 0 0 0 0 0 0 0 0 0 0 0 0 0 0 0 0 0 0 0 0 0 0 0 0 0 0 0 0 0 0 0 0 0 0 0 0 0 0 0 0.02610144066035593 0 0.1311660368102935 0 0 0 0 6:5 7:8 8:4 9:3 10:2 11:5 12:6 13:3 14:3 15:2 16:3 17:6 18:5 30:2 31:7 32:6 33:6 34:6 35:11 36:10 37:7 
-0 0.8940959788718872 0 0.005915367417576471 0 0.2615132068479205 0 0 0 0 0.1121914164548862 0 0 0 0 0 0 0 0 0 0 0 0 0 0 0 0 0 0 0 0 0 0 0 0 0 0 0 0.4288167818501362 0 0 0 0 0 0 0 0 0 0.04458979449117075 0 0 0 0 6:5 7:7 8:3 9:2 10:2 11:5 12:6 13:3 14:2 15:2 16:3 17:6 18:5 30:6 31:7 32:6 33:6 34:9 35:10 36:7 
-0.3527112602516942 0.4722451086539737 0.2133187831379998 0.2369119636393449 0.1202805358944838 0.1997867943003602 0.1873838046878706 0.1567690241344793 0.258119523440751 0.1730695179497895 0.2114150403686785 0.1929295438581695 0.2674656022732892 0.2110943632782784 0.1541511662270315 0.2884272281264819 0.3184122308546837 0.2796433839773473 0.2602967979221037 0.1770294897391448 0.238883148102039 0.2054940984435575 0.2579989875938161 0.3344738011486683 0.3414660268938572 0.2139927609640138 0.2458698925201532 0.2568356389593845 0.281879025163736 0.2874260300013597 0.2614637298568455 0.2333733408819093 0.228390657788161 0.3069992637138462 0.216671236353696 0.16516090938759 0.2105754452985062 0.2092021775791744 0.1828132330171435 0.2445461338262232 0.1979817641905861 0.2418718535934166 0.2282318451713172 0.2633315170562628 0.2446396584476082 0.2711016034180715 0.3626431666592865 0.2376549369623802 0.2673621310999642 0.2814451800738071 0.2363954281138359 0.19422385776785 0.2819554878907196 6:6 7:8 8:2 9:2 10:2 11:5 12:6 13:3 14:2 15:2 16:3 17:6 18:5 19:4 30:2 31:7 32:7 33:7 34:7 35:9 36:10 37:7 
-0 0 0 0.02553440043327888 0 0 0.02529949433166216 0.02516996952198038 0.01085542614349227 0.02690388597318808 0.03568387568117677 0.03786045079612448 0.03173035832786366 0.03469602374221633 0.03301252211241078 0.01247062452882767 0.04822075158685678 0.04113747420763769 0.04602257483901734 0.02678731727988698 0.03830314147581706 0.0327688608523912 0.04527236491123139 0.05352600319969556 0.06215750276253007 0.03573866215845443 0.03957298908153192 0.04118959018049079 0.04557410674586982 0.04666468217444034 0.04231690476750606 0.03768148804673546 0.03677576360805828 0.04755795282292971 0.03319212667640872 0.02626029265268008 0.03106734267645215 0.05189144688758168 0 0.04208748724340075 0.03172545924927338 0.03867222596177371 0.0353452113228769 0.06451870478876123 0.0526360698102438 0.04404794878527898 0.04930522629418603 0.06250024750167138 0.04172687151111346 0.05763425791995738 0.06176058814198048 0.0444927744839991 0 6:5 7:8 8:2 9:2 10:3 11:5 12:6 13:3 14:2 15:2 16:3 17:6 18:5 30:1 31:6 32:6 33:6 34:6 35:9 36:10 37:8 
-0.01510881692151615 0 0.01965868240055026 0.2098053402787548 0.01203824940530726 0 0.1942268459199882 0.1972075369545283 0.2462146899082724 0.1828895400793511 0.09541803412104702 0.2270156229766108 0.3039346660530555 0.2202201396117613 0.01733939108191908 0.2665502943481943 0.3354467260698841 0.2912747070043238 0.272672010616293 0.186498887809455 0.2498430447104619 0.2150622566818804 0.2710489963192101 0.3538944537751534 0.3688493739738655 0.2301291092007228 0.2604050972527618 0.2693971671017689 0.2943627434793777 0.3000279300332321 0.2731947207991263 0.2447554201325736 0.2430968944364812 0.3244713517907182 0.2282132110588073 0.1728305371366175 0.2177234862433219 0.2507359883302059 0 0.2747755030990989 0.2034589051232093 0.2542824525514251 0.2389047803182851 0.3111998300157537 0.2836649145506412 0.2840311567330275 0.4131299214115623 0.2632916453454814 0.1441903769505855 0.3042754108249291 0.2607282748631335 0.2345647974040532 0.2051746740307853 6:5 7:7 8:2 9:2 10:3 11:5 12:6 13:3 14:2 15:2 16:3 17:6 18:6 30:6 31:7 32:6 33:6 34:9 35:11 36:7 
-0.1843915240928036 0 0.03632963311197165 0 0.1065190970695646 0.1752589466373327 0 0 0 0 0.01344262864969202 0 0 0 0 0 0 0 0 0 0 0 0 0 0 0 0 0 0 0 0 0 0 0 0 0 0 0 0.2220973301780401 0 0 0 0 0 0 0 0 0 0.01448179676080289 0 0 0 0 6:5 7:8 8:6 9:2 10:2 11:5 12:6 13:3 14:2 15:2 16:4 17:7 18:5 30:3 31:7 32:7 33:7 34:7 35:9 36:10 37:7 
-0.01935649770663305 0.1414898683233007 0.1819263573971936 0.223190207380661 0.240106927666372 0.2837985600422272 0.2118314852133839 0.1732048343644777 0.3252295984969096 0.1951761603559467 0.1648338186127649 0.2162301814850602 0.3027518789810587 0.2388802306158462 0.2089251114677405 0.310680155732881 0.3607924455052515 0.3185473020383717 0.2955411288642533 0.1913865509030693 0.270223795140147 0.2325684718560198 0.2927580595924185 0.3769138669847084 0.3779691636531064 0.2423069861835067 0.2783004845217052 0.2911847529613913 0.3190687012909892 0.3251679865862872 0.2949170132196824 0.2650471639891759 0.255535837582196 0.348144635030012 0.2454830298367683 0.1872146695524179 0.2339890603568315 0.2333205760454564 0.1537716942447623 0.277959400192981 0.2224620833234129 0.2744588896175073 0.2584213824849227 0.2940193936143439 0.269787738112021 0.3069402107154922 0.4166559992665095 0.2652995885824136 0.2545224194383882 0.3083370629118709 0.2604340782429592 0.2177589829271905 0.1425855653115227 5:2 6:5 7:8 8:3 9:2 10:2 11:5 12:7 13:4 14:2 15:2 16:4 17:6 18:5 30:1 31:6 32:9 33:6 34:8 35:9 36:10 37:8 
-0.2084050714066322 0.8514716136405953 0.4812016277558675 0.2531302742071879 0.7624051628287113 0.3900745434890563 0.2387986548051532 0.1617369574945189 0.4463541893305369 0.1989957779251069 0.2893470508531319 0.2170833199693001 0.30693965272421 0.2410661564971611 0.2910327160593784 0.3594806067124743 0.3632910208300431 0.3064597150301275 0.2978430849317596 0.2213987308510953 0.2713189688794743 0.2335329049749335 0.294408805860767 0.3805600951198748 0.3861196807781845 0.2449971458692679 0.2872488687433917 0.2921201944275987 0.3211517487612468 0.3276546060822574 0.2975483912377058 0.2662820035080399 0.2750845936705177 0.3660295020490457 0.2468069855689476 0.1876205942584571 0.300168327885365 0.2315912892325014 0.03810519079408811 0.2816696231664507 0.2250411930394312 0.2766614860449415 0.2596190667506807 0.3034613158937444 0.3654720815058086 0.3090982081689768 0.428721716586322 0.2747144405837119 0.3144689379154015 0.3141186688205643 0.2717423050236599 0.2177126130065196 0.2411708261525824 5:1 6:6 7:8 8:5 9:3 10:2 11:5 12:6 13:3 14:2 15:3 16:5 17:6 18:6 21:1 22:1 29:3 30:8 31:8 32:7 33:6 34:10 35:11 36:7 37:3 
-0 0 0 0 0 0 0 0 0 0 0 0 0 0 0 0 0 0 0 0 0 0 0 0 0 0 0 0 0 0 0 0 0 0 0 0 0 0 0.3702893523628536 0 0 0 0 0 0 0 0 0 0.01506849434488182 0 0 0 0 6:5 7:7 8:2 9:2 10:2 11:5 12:6 13:3 14:2 15:2 16:3 17:7 18:5 19:1 30:1 31:6 32:6 33:7 34:6 35:9 36:10 37:7 
-0 0 0 0.08045552178009718 0 0 0 0 0 0 0 0 0 0 0 0 0 0 0 0 0 0 0 0 0 0 0 0 0 0 0 0 0 0 0 0 0 0 0 0 0 0 0 0 0 0 0 0 0 0 0 0 0 6:5 7:8 8:2 9:2 10:2 11:5 12:6 13:3 14:2 15:2 16:3 17:6 18:5 30:1 31:6 32:6 33:6 34:6 35:9 36:10 37:7 
-0.3857053430393307 0.8979209292035122 0.4956749162658524 0.4538210480899716 0.4676252498849316 0.7114362733204028 0.4083521229366253 0.3419693317039169 0.5523492949161739 0.3718141156711086 0.3826167680959119 0.4135791327679583 0.5909137969820787 0.4524228176981079 0.3477775398023396 0.5154553254450661 0.68113815562427 0.5827283316613909 0.5604491300595046 0.4041202487455217 0.5115298513475041 0.4400551148606485 0.5530808827204698 0.7155490304519426 0.7243114826435118 0.4590116416902692 0.5273706459404994 0.5501663275302149 0.6042014280163012 0.6158535470474045 0.5607079887183593 0.5018865658920323 0.4871298129173038 0.6537374552093487 0.4671495002170822 0.3533428860055845 0.4515686525784629 0.4511292609223609 0.2961151118128098 0.5262841129112636 0.4221979270220294 0.5206914956362203 0.4888755951585711 0.5699187190510639 0.5291862852299331 0.5809028063570112 0.7575610622579446 0.5140232121993954 0.558743347103121 0.5907287102157044 0.5006754554694879 0.4189668842531067 0.3359416311363702 6:6 7:9 8:4 9:2 10:3 11:5 12:6 13:4 14:2 15:2 16:3 17:7 18:6 19:1 29:1 30:1 31:4 32:6 33:8 34:7 35:6 36:9 37:11 38:7 
-0 0.01947571759837712 0.04269452391796798 0 0.05014400593567347 0.02319631186649722 0 0 0 0 0 0 0 0 0 0 0 0 0 0 0 0 0 0 0 0 0 0 0 0 0 0 0 0 0 0 0 0 0 0 0 0 0 0 0 0 0.07327911230095671 0 0 0 0 0 0 6:5 7:7 8:3 9:2 10:2 11:7 12:6 13:4 14:3 15:2 16:3 17:6 18:5 19:1 30:6 31:8 32:7 33:6 34:9 35:11 36:8 37:1 
-0.6588186568311147 0.9206097128985992 0.7925126614249561 0.8149777676207188 0.7482413800931839 0.8801268989027848 0.7331856812374122 0.6192006676358321 0.987718074105948 0.6720948431800738 0.6753133640823306 0.7476327318030331 1 0.8181347665909661 0.6272217707756804 0.924912032131229 1 1 1 0.7066195494901623 0.9244431398272323 0.7950870720294091 1 1 1 0.8299921318744129 0.9525191734537447 0.9933119392776664 1 1 1 0.9066731824839429 0.8806411499228092 1 0.8428885473787477 0.6382153501070752 0.8152156560136041 0.8187381431897622 0.5794523399896588 0.9526844636368313 0.7608491833008065 0.939881806081339 0.8836258695829358 1 0.9596417621721094 1 1 0.9349221992562187 0.9760600188080351 1 0.9187114562402536 0.7586855676933326 0.6005358664593535 6:7 7:11 8:8 9:4 10:5 11:7 12:9 13:5 14:4 15:6 16:7 17:8 18:6 27:7 28:8 29:7 30:2 31:2 32:5 33:9 34:7 35:7 36:6 37:10 38:10 39:7 
-0.1199724897711874 -0.2087610324516588 1 0.1427488917564171 0.3662668617938466 0.3436422461949524 0.1760077594260815 0.1067258966247209 0.2013237842148135 0.1227249482850108 0.2974174083346008 0.1242091347220262 0.1812197037751423 0.1445345242147969 0.1554386253080925 0.09078379591538543 0.2042921778967908 0.1729910217782117 0.1669431026318992 0.2912557887644786 0.155974536958107 0.133572814822817 0.1657093227690402 0.2065284421192131 0.2112601670974786 0.1472998596647548 0.1884440427727205 0.16536913808242 0.1779471628837892 0.1896488033579274 0.1682483675191041 0.151905256220648 0.1554287848079581 0.2003967611343247 0.1423955860259196 0.1082423117639047 0.2375329811099997 0.1334351781570285 0.1602057779707697 0.1574954475473592 0.1302495323121953 0.1637805380984867 0.1553951519909175 0.1786073237618292 0.1962093402679984 0.1740289503380404 0.2383488212490359 0.1574949633281716 0.2641154281752561 0.1762557540664186 0.1538746817362582 0.1270593093014727 0.08012483423896251 6:8 7:8 8:3 9:3 10:2 11:5 12:7 13:4 14:3 15:4 16:4 17:7 18:5 29:2 30:8 31:9 32:6 33:6 34:6 35:8 36:8 37:6 38:4 
-0 -0 0 0 0 0 0 0 0 0 0 0 0 0 0 0.2561779883486374 0 0 0 0 0 0 0 0 0 0 0 0 0 0 0 0 0 0 0 0 0 0 0 0 0 0 0 0 0 0 0 0 0 0 0 0 0 6:8 7:8 8:2 9:2 10:2 11:5 12:7 13:4 14:2 15:2 16:3 17:7 18:7 30:9 31:10 32:6 33:6 34:6 35:7 36:9 37:6 
-0 -0.254677257160452 0 0 0 0 0 0 0 0 0 0 0 0 0 0 0 0 0 0 0 0 0 0 0 0 0 0 0 0 0 0 0 0 0 0 0 0 0.01175153285813007 0 0 0 0 0 0 0 0 0 0 0 0 0 0 6:8 7:9 8:2 9:2 10:2 11:5 12:7 13:3 14:2 15:2 16:7 17:7 18:5 29:1 30:9 31:10 32:7 33:6 34:7 35:7 36:8 37:6 
-0 -0.246485483119094 0 0 0 0 0 0 0 0 0 0 0 0 0 0 0 0 0 0 0 0 0 0 0 0 0 0 0 0 0 0 0 0 0 0 0 0 0 0 0 0 0 0 0 0 0 0 0 0 0 0 0 5:1 6:8 7:8 8:3 9:2 10:2 11:5 12:7 13:3 14:3 15:2 16:3 17:6 18:5 30:7 31:9 32:6 33:6 34:7 35:9 36:8 37:6 
-0.375493621101674 -0.8269852893937395 0.648666216222041 0.5229378539054259 0.6222983430063534 0.8534535726897103 0.4792731212081152 0.40288322601198 0.6820435610282168 0.432366661499001 0.3808914213823593 0.4791911003979757 0.6672644846605369 0.5217672806847005 0.4447555248203478 0.7164511648529808 0.7527716800976089 0.6622443325295236 0.6359814829974274 0.443605000594836 0.5856825480402492 0.5078695822339681 0.6306333958912947 0.7853828557036586 0.7947510049782269 0.5285323783546134 0.6031071402200002 0.6255388450202842 0.6771148865778905 0.6893027064247143 0.6363306386104269 0.5792469925270044 0.5582883895832842 0.7532798010055834 0.5417812989561749 0.4133338138855128 0.5095716463403873 0.5290921389332062 0.4346528754633599 0.6070469139626827 0.4979417774686434 0.597207270194372 0.5651646949564427 0.6496714066337071 0.6122743147246471 0.6562899017719821 0.8326019444632007 0.594518260409161 0.6493136790052747 0.672364867644811 0.5901890875751379 0.4879234163945248 0.3384496150729285 5:1 6:8 7:8 8:2 9:3 10:3 11:8 12:8 13:3 14:2 15:2 16:3 17:7 18:5 29:3 30:2 31:8 32:9 33:7 34:6 35:6 36:8 37:8 38:6 
-0.1117082217361042 -0.1980986951658845 0 0 0.1300090099392135 0.07637630998911696 0 0 0 0 0.2109932688963221 0 0 0 0.0387849449982639 0 0 0 0 0 0 0 0 0 0 0 0 0 0 0 0 0 0 0 0 0 0 0 0.1136937818773312 0 0 0 0 0 0 0 0 0 0 0 0 0 0.2289589745396645 6:8 7:9 8:3 9:2 10:3 11:5 12:7 13:3 14:2 15:2 16:3 17:6 18:5 29:7 30:9 31:7 32:6 33:6 34:7 35:8 36:7 37:1 
-0 -0.4095525887481153 0 0.02702444375512788 0.1541492705581914 0.312472052294348 0 0 0 0 0 0 0 0 0.1039221395094707 0 0 0 0 0 0 0 0 0 0 0 0 0 0 0 0 0 0.0354614228755001 0.05328594772569432 0 0 0.04720115166232968 0 0.04547787058626667 0 0 0 0 0 0 0 0.04119237005912879 0 0.03470272730699039 0 0 0 0 6:8 7:8 8:5 9:2 10:2 11:6 12:7 13:3 14:2 15:2 16:3 17:6 18:5 30:7 31:9 32:7 33:6 34:7 35:8 36:9 37:6 
-0.3679626646054266 -0.3960759242054878 0.7473079684905672 0.5314550709045495 0.4987603805456086 0.636046281507389 0.4713522959086752 0.4131357521193937 0.7005677184091561 0.4690341935878439 0.3847126989352662 0.4933085332604893 0.6835534841724427 0.5444019575320176 0.3550742873623481 0.9922164598214948 0.7767102422742918 0.6688945276479562 0.6510825704829882 0.4825516090796758 0.6060118200903446 0.5209984914505204 0.6445230340269371 0.804434413373693 0.814884376179508 0.5495837975928586 0.6423313121911058 0.6424392936151163 0.6943176574461651 0.7065849124401274 0.6520976536119732 0.5964498395341233 0.5721931765094248 0.7937618625455904 0.5562822782438932 0.4229847985401934 0.6916030683443539 0.5446996320021328 0.3455305344354515 0.621766801645556 0.5063433151837111 0.6154088415618021 0.5817224156114088 0.6651051512249961 0.6235435497325942 0.6717158042493706 0.8596136964021553 0.6118263689223562 0.6260355244343743 0.6840499201227526 0.6003869791728301 0.5004587945467842 0.2776830628572015 6:8 7:8 8:2 9:2 10:3 11:5 12:8 13:5 14:2 15:2 16:3 17:7 18:6 29:9 30:10 31:6 32:7 33:6 34:7 35:8 36:7 37:1 
-0.1066862887912257 -0.6395745588895785 0.4915675126285544 0.3922327909786484 0.4416119228948813 0.9377866394756236 0.4182997874871363 0.3487998739048422 0.5250619557573393 0.3720506562678734 0.3775019347444299 0.441513658882407 0.571213115665421 0.4469234603109639 0.4990712032372739 0.5361441059797707 0.6991861925288764 0.7564133162999684 0.5430219411159714 0.3847736618817524 0.4994898528317335 0.4341007238458315 0.5527753742903986 0.6703263206316157 0.6891754757483211 0.4783682889386939 0.5309081187592989 0.5413151111426735 0.5791392376429155 0.5910331858134106 0.5433356797211131 0.4953029212781684 0.5146023911184723 0.6656114499416639 0.4645276297734244 0.3739630288975209 0.4440287080006789 0.5405234694657572 1 0.5271250228108444 0.4271227051979535 0.5114015531821452 0.483227852994551 0.607297219069165 0.5540602586479407 0.5638192273478155 0.7988269613703264 0.594628795948055 0.6440626707088369 0.6850818188915607 0.5072574035162996 0.4221542053495396 0.06637729232801383 5:1 6:4 7:6 8:2 9:2 10:2 11:4 12:6 13:4 14:2 15:2 16:2 17:5 18:4 30:6 31:9 32:7 33:7 34:6 35:7 36:4 
-0 -0 0.33773728908505 0 0 0 0 0 0 0 0 0 0 0 0 0 0 0 0 0 0 0 0 0 0 0 0 0 0 0 0 0 0 0 0 0 0 0 0 0 0 0 0 0 0 0 0 0 0 0 0 0 0 6:8 7:8 8:2 9:2 10:2 11:6 12:7 13:4 14:2 15:2 16:5 17:7 18:5 29:1 30:9 31:11 32:6 33:6 34:6 35:7 36:8 37:6 
-0 -0 0.4692118128571105 0.1360660919198106 0.2048163285922667 0.3601802840490041 0.1084098262110221 0.1024630468368752 0.2455019123180405 0.1163390241531643 0.0867083544374499 0.1210450528452115 0.1685944709600609 0.1356991965458316 0.1068509153249919 0.3996813639817658 0.193107978300435 0.2059292443311934 0.162914522415444 0.1434044889344688 0.1516949796104054 0.1303866133113 0.1598436175018946 0.2002353191952533 0.2043525071916706 0.148707060779671 0.1793148997809739 0.16232544972037 0.1737077740901022 0.176729419258419 0.1639888858013374 0.1482573744929092 0.3279482826168693 0.3507520984326385 0.1387335668181964 0.1057488375398054 0.3871990557603084 0.1355002351263663 0.04449539153238351 0.1577025407952198 0.1272906408195058 0.1539239083208842 0.1458428725596358 0.1653987242794757 0.1535095401807966 0.1676831794415524 0.208051433527053 0.1505676081481596 0.1483077136644393 0.1715766507042454 0.1510103636596637 0.1243055399735536 0 6:8 7:9 8:3 9:2 10:2 11:5 12:7 13:5 14:2 15:2 16:5 17:7 18:5 19:1 29:2 30:11 31:10 32:7 33:6 34:6 35:7 36:8 37:6 
-0.07487195922947804 -0 0.1712649365475743 0 0 0.08044918802299098 0 0 0 0 0 0 0 0 0 0 0 0 0 0 0 0 0 0 0 0 0 0 0 0 0 0 0 0 0 0 0 0 0 0 0 0 0 0 0 0 0 0 0 0 0 0 0.01231047657686076 5:2 6:8 7:8 8:2 9:2 10:2 11:6 12:7 13:5 14:2 15:2 16:3 17:7 18:5 19:1 29:1 30:8 31:9 32:8 33:8 34:7 35:7 36:8 37:6 
-0.2737742727234485 -0.09986842206510048 0.1672061187552281 0.2615800296801331 0 0.07369165553027771 0.2270097172645669 0.1980574760760179 0.1566240363516984 0.2048779656982605 0.1691539292202744 0.2361560736253898 0.3271745195337722 0.2557511168925554 0.1675121544273551 0.08352895221379079 0.370198347482998 0.3182513585764169 0.3126303994071825 0.2129284713589933 0.2879072085662776 0.2497393048443095 0.3137318130145002 0.3854846987666568 0.3909499904377998 0.2568496889539681 0.2900063701804938 0.307503949611352 0.3329531317312415 0.3380573233741744 0.3129296190796088 0.28433780546198 0.2578234072017517 0.3370332868648458 0.2669378367998698 0.2033491201634612 0.2019914872325037 0.2624622770205994 0.0860650775464443 0.2986511601740083 0.2437804773920128 0.2957123172628817 0.2776756680836889 0.3211664505104674 0.2326840473817127 0.3228066736043522 0.4002504250096511 0.2948115979113585 0.2827884782783823 0.3322099631310072 0.289370855481063 0.2407300540740369 0.1532806038043562 6:8 7:8 8:2 9:2 10:2 11:5 12:8 13:3 14:2 15:2 16:3 17:7 18:6 30:7 31:9 32:6 33:6 34:6 35:7 36:8 37:9 
-0.4753997654671925 -0.9369620563031209 0.375178329478394 0.5047337541349444 0.4495845876623615 0.540487190956515 0.4248319055050542 0.3626976440100531 0.5773199319941971 0.3892265404203826 0.4382145085565699 0.4319586116551181 0.5952717134391203 0.4710214648787141 0.3955607696002793 0.7133903234272982 0.683847950170001 0.6051520426692083 0.5739175876884759 0.4242176328550571 0.5279222270858855 0.4594939923181062 0.5701288653600153 0.708380951589164 0.7169051414926759 0.476768133933967 0.5436333055948859 0.5658406954066099 0.6113328825060762 0.6208886121695941 0.5734135560361444 0.5222458523756964 0.5045957474242952 0.6633928482724174 0.4888520753172949 0.3721810692313089 0.4609676585508898 0.474670158677943 0.466448625721653 0.5470403449051295 0.4516990823738567 0.540810762247719 0.5113416836024729 0.5833676112422688 0.5471727403292255 0.5915430733563407 0.7458935448008104 0.5338944926337915 0.5607431614028848 0.6021651800492288 0.5314083460314424 0.4390127425961464 0.4564974662741982 6:9 7:9 8:3 9:2 10:2 11:5 12:7 13:3 14:2 15:2 16:3 17:7 18:6 29:1 30:2 31:8 32:9 33:6 34:6 35:6 36:7 37:9 38:6 
-0 -0 0 0 0 0 0 0 0.128407456730895 0 0.0641937835256278 0 0 0.004068076652675653 0 0.4366189568507893 0.001148717307027901 0.01477269210813951 0.003940213022856564 0 0.003422472916255296 0.003533283876335794 0.004073188666356508 0.006807319245977373 0 0.001097892040223622 0.007149478962664052 0.005727794061218103 0.00468743665785371 0.005547811326848427 0.003260647666683251 0.004618428655887569 0.02378215457984368 0.05132870953428447 0.002970387039714019 0.001463946013835664 0.01862969585542808 0 0 0.0008610056245267305 0.002385020482764939 0.003483946764065971 0.004175549862952944 0 0.05958261628071503 0.002422129553290027 0 0 0 0 0 0 0.05813140284256937 5:2 6:8 7:8 8:4 9:2 10:2 11:5 12:7 13:4 14:2 15:2 16:3 17:7 18:6 30:9 31:10 32:7 33:8 34:6 35:8 36:8 37:6 
-0 -0 0.4120554566236743 0 0 0.03145655818540733 0 0 0 0 0 0 0 0 0 0 0 0 0 0 0 0 0 0 0 0 0 0 0 0 0 0 0 0 0 0 0 0 0 0 0 0 0 0 0 0 0 0 0 0 0 0 0 6:8 7:8 8:2 9:2 10:3 11:7 12:8 13:3 14:2 15:3 16:5 17:7 18:5 29:1 30:8 31:9 32:7 33:6 34:8 35:8 36:8 37:7 38:1 
-0.3639793237833097 -0.5672601033196735 0.03568578236011567 0.521166823926914 0.07524248815256532 0 0.1401450689160247 0.1168949183762519 0.2054785329966369 0.1471011755618058 0.7321222673058164 0.2887258677169108 0.2299323052570995 0.1783581562285619 0 0.1660407512812705 0.2463385084036551 0.1878847204136651 0.2171410562432013 0.1618039487764171 0.2004956132533 0.1746352968596653 0.2179880832257381 0.2681751551504049 0.2784326640306773 0.2067862561216023 0.2275221903942083 0.2334154605319322 0.2312523608812231 0.2352949029828644 0.2175382626793546 0.197219570296617 0.1944015563370493 0.2383614793984913 0.1829069322877175 0.1502159626487459 0.173924083446067 0.210308718435087 1 0.2014403547236595 0.1690266886994285 0.204458941415758 0.194537104389772 0.2611354180858761 0.2572847309607665 0.2236702275486684 0.1958245933842933 0.3135847515745114 0.1245248399930559 0.3209964708198692 0.3104974980297673 0.1886477526206435 0.4845367555009362 6:5 7:6 8:2 9:2 10:2 11:4 12:4 13:3 14:2 15:2 16:2 17:6 18:4 30:6 31:8 32:6 33:6 34:6 35:8 36:4 
-0.3940755574214681 -0.105527527392329 0 0.1118595617007861 0 0 0.1059048466830076 0.08560755827044783 0.04667388144549293 0.0821933602876377 0.07688467815186023 0.1051549875985762 0.1418246190243642 0.1162812596978406 0.05501199324854138 0 0.1691792495163047 0.1431427519312618 0.1414257519084822 0.08115073982545799 0.1301511141306627 0.1133100635218068 0.1405691496590905 0.1736965380961324 0.1784106824185965 0.1137117291293407 0.122636810405554 0.1395125701274157 0.1517232488803767 0.1520464868700897 0.1418341022646351 0.1284185333753561 0.09054623345939405 0.1146049372716346 0.1190989375534332 0.0921730019354253 0.03354249025011104 0.1114775578839979 0.08178238349404231 0.1336151479541266 0.1094321819767277 0.1321482789490576 0.1250375597755563 0.1423481002817493 0.1426835687754739 0.1455556966565725 0.1507325756923135 0.1294079525958086 0.1131384087096389 0.145444190180063 0.1274780664148997 0.1069825833439239 0.2040183697977045 6:8 7:8 8:5 9:2 10:2 11:5 12:7 13:3 14:2 15:2 16:3 17:7 18:6 30:8 31:9 32:7 33:7 34:6 35:7 36:10 37:6 
-0 -0 0 0 0 0 0 0 0 0 0 0 0 0 0 0 0 0 0 0 0 0 0 0 0 0 0 0 0 0 0 0 0 0 0 0 0 0 0.1160322852664478 0 0 0 0 0 0 0 0 0 0 0 0 0 0 6:8 7:8 8:3 9:2 10:2 11:5 12:7 13:5 14:2 15:2 16:3 17:6 18:5 30:7 31:9 32:8 33:7 34:6 35:7 36:8 37:6 
-0 -0 0 0 0 0.1577411613146412 0 0 0 0 0 0 0 0 0 0 0 0 0 0 0 0 0 0 0 0 0 0 0 0 0 0 0 0 0 0 0 0 0 0 0 0 0 0 0 0 0 0 0 0 0 0 0 6:8 7:8 8:2 9:2 10:3 11:6 12:7 13:5 14:2 15:2 16:3 17:6 18:5 29:1 30:7 31:10 32:6 33:8 34:6 35:7 36:8 37:6 
-1 -1 0.3281859346214753 0.2744188333664966 0.4184653676735101 0.5337387784132617 0.330919397678449 0.3342114815383793 0.4055385024482841 0.2760150426353266 0.2032031018657087 0.2578339691962898 0.4283930337233827 0.3309966116669651 0.7684486580312475 0.3884443276805469 0.4767275116252407 0.3694163158948574 0.4051403849749163 0.2847382243197424 0.3726449045285322 0.3226710934369214 0.3940729214153829 0.5024604440581883 0.5350718084023429 0.3134656425328247 0.3692663969422686 0.3845861127018199 0.4303924977215146 0.4372946407028712 0.4041884012475103 0.3685231791164804 0.3391663167337768 0.4509701940776978 0.3460316872018763 0.2492560937114058 0.3209041594725464 0.3715326966668708 1 0.4120934832721573 0.3225547937600857 0.3805333622189653 0.359038509804934 0.4222744367141993 0.4167055505525302 0.4170127726604909 0.7503770189200357 0.3857575927896479 0.7236557087480751 0.4024421489224233 0.380546285474288 0.336765409627042 0.7837276370987444 6:5 7:6 8:3 9:2 10:2 11:5 12:4 13:3 14:3 15:2 16:2 17:6 18:5 30:5 31:8 32:6 33:7 34:7 35:9 36:5 37:1 
-0 -0.05944718503053964 0.03473901686444999 0.1682805675779215 0.09228060250316002 0.1899137626369659 0.1222120599015827 0.1191368827564058 0.1054029828610698 0.1156324100103298 0 0.1510207742436576 0.2050402363098507 0.1663313731166722 0.1082249769117332 0.1825050952439596 0.2357274099750211 0.2002607367718023 0.1972812563070114 0.1447707723335764 0.177921636132451 0.157629637769631 0.1948313522875562 0.2433418660160232 0.2477156929115381 0.1513049819803742 0.1501839130851871 0.1937352336027427 0.2098468876912503 0.2123254889666487 0.1946998617885186 0.1763090962151097 0.1517649430290641 0.1866452434310863 0.1695149681244264 0.1300212803520455 0.1102509942815202 0.172280039283725 0 0.1902055358031437 0.1542693746284985 0.1823072161195172 0.1757296928582863 0.2016550699254101 0.1800121021483549 0.202876437159785 0.2651363182507571 0.1934890373616275 0.1343171508957104 0.2103518258231184 0.1800613773806801 0.1533611516934957 0.07767619471451882 5:1 6:9 7:8 8:2 9:2 10:2 11:6 12:7 13:3 14:3 15:3 16:3 17:6 18:5 19:1 29:7 30:9 31:6 32:7 33:6 34:9 35:8 36:7 37:2 
-0.3432425096790521 -0.09968611348734115 0.1164543880768881 0.3418903258246627 0.1663530945444012 0.2525624365018294 0.3081633209628998 0.261970212521176 0.5355493282916434 0.3126264990474646 0.392220827431305 0.3142830406637326 0.4457752819394066 0.3407443679918239 0.2767963401261077 1 0.4938306277271182 0.4238960801661772 0.415045203971976 0.3029183794804406 0.3841257819317827 0.3312765117170821 0.4139444768799436 0.513246907528173 0.5168704710851704 0.3501945981569762 0.401193749880135 0.4130094884394886 0.4423144592852353 0.4498284421711525 0.4156766613591307 0.3791548760749865 0.3419436665188475 0.4614674668697388 0.3542173053423022 0.2686527899645957 0.2550505592595712 0.3469407579077302 0.3190553084150868 0.3945391808366205 0.3261289213735657 0.3921027653619283 0.3701183035515571 0.4243080845537347 0.4436614861530048 0.4277799242283552 0.5383478759701151 0.3852342715588212 0.3933164005429084 0.4375737016536331 0.3844181841704514 0.3203837013969537 0.3154021123573599 6:8 7:8 8:2 9:3 10:2 11:5 12:7 13:3 14:2 15:2 16:6 17:7 18:6 19:2 30:10 31:11 32:8 33:6 34:7 35:7 36:8 37:6 
-0 -0 0 0 0 0 0 0 0 0 0 0 0 0 0 0 0 0 0 0 0 0 0 0 0 0 0 0 0 0 0 0 0 0 0 0 0 0 0.2163718674159022 0 0 0 0 0 0 0 0 0 0 0 0 0 0 5:1 6:8 7:8 8:2 9:2 10:3 11:5 12:7 13:3 14:2 15:2 16:3 17:6 18:5 30:7 31:9 32:6 33:8 34:6 35:7 36:8 37:6 
-0.1949869342770232 -0.2143270006605522 0.0996443402505416 0.1297632913442515 0.4090463100068868 0.4828197228123528 0.1123134361995193 0.1018762510348676 0.2024799258308443 0.11749997424938 0.1834632727659882 0.1232399612378268 0.1771208668910776 0.1288981102709909 0.06290331434284836 0.1396352338241705 0.1894143333385733 0.152866775160527 0.1592032701664896 0.1181569937177539 0.1463607217074407 0.1271635942027063 0.1558986745287392 0.1965743976603315 0.2013503280967423 0.1312673390563513 0.1483861840078997 0.1565252591269169 0.1687048770625053 0.1707635022912793 0.1587225272352939 0.1454101318792712 0.1433593606655056 0.1707621141429398 0.1372578846218703 0.1036549518259803 0.1381196673144536 0.1373520003950376 0.02257942917027609 0.1528728487612989 0.1267488787660589 0.1490160351487795 0.1420187207692645 0.1624456962661581 0.1343509340233492 0.1647905399808552 0.2104061906751448 0.1521165622382123 0.1905534539235445 0.1739796359531377 0.1539447444636282 0.1229688982350068 0.1069684904721722 6:8 7:8 8:5 9:2 10:3 11:5 12:7 13:3 14:3 15:2 16:3 17:8 18:5 29:1 30:8 31:9 32:6 33:8 34:6 35:7 36:9 37:7 38:1 
-0 -0.115892945697783 0 0 0 0 0 0 0 0 0 0 0 0 0 0 0 0 0 0 0 0 0 0 0 0 0 0 0 0 0 0 0 0 0 0 0 0 0 0 0 0 0 0 0 0 0 0 0 0 0 0 0 5:1 6:8 7:8 8:2 9:2 10:3 11:5 12:7 13:4 14:2 15:2 16:3 17:7 18:5 30:7 31:9 32:6 33:8 34:6 35:8 36:8 37:7 
-0.3354857157395028 -0.8172983457523726 0.5256146278008421 0.2909618649927666 0.3886861991220993 0.285410450998214 0.3132222489934571 0.2295243221368492 0.4687056002284961 0.2459024401138815 0.3617577281489111 0.2578689636375209 0.3592490485744995 0.2788005405067748 0.4071240884335884 0.2156184725872576 0.4062052346915373 0.3577206590984514 0.3428058996002478 0.2690185591344576 0.3152485115623676 0.274266789376454 0.340129625225356 0.4236291926981784 0.4292675887629706 0.2911629988149926 0.3443370953964188 0.3368868009956294 0.3647971383062276 0.3725079221360952 0.3432450125936919 0.3143514895673157 0.3077131294435506 0.3944822365834265 0.2909762454201753 0.2214653123114675 0.326284712665279 0.2819774664967373 0.3566163075812449 0.3269728159551529 0.2692618129104483 0.3247489096269573 0.3042891762230121 0.3532830922151372 0.3518092919078012 0.3534758796437089 0.4663434737047857 0.3177800330085822 0.4055741986500137 0.3629845501486625 0.3180938234843725 0.2618559624893371 0.3856168405584864 6:8 7:8 8:2 9:2 10:3 11:5 12:7 13:3 14:4 15:3 16:4 17:6 18:5 29:7 30:9 31:6 32:8 33:6 34:9 35:8 36:6 37:1 
-0 -0.4374892037906667 0 0 0 0 0 0 0 0 0 0 0 0 0.002678555625052253 0 0 0 0 0 0 0 0 0 0 0 0 0 0 0 0 0 0 0 0 0 0 0 0 0 0 0 0 0 0 0 0 0 0 0 0 0 0 6:8 7:8 8:2 9:2 10:2 11:7 12:7 13:4 14:2 15:3 16:4 17:6 18:5 29:1 30:7 31:9 32:7 33:6 34:7 35:9 36:8 37:6 
-0.05753155749033122 -0.7962119704032724 0 0 0.01435538419983013 0 0 0 0 0 0 0 0 0 0.01968698230765463 0 0 0 0 0 0 0 0 0 0 0 0 0 0 0 0 0 0 0 0 0 0 0 0.1439156887447673 0 0 0 0 0 0 0 0 0 0 0 0 0 0.1847182904456066 5:1 6:8 7:8 8:4 9:2 10:2 11:5 12:7 13:3 14:2 15:3 16:3 17:6 18:5 19:2 29:1 30:7 31:9 32:7 33:7 34:7 35:9 36:8 37:6 
-0 -0 0.01535015722859031 0 0.1563778645305935 0.07559862272549916 0 0 0 0 0 0 0 0 0 0 0 0 0 0 0 0 0 0 0 0 0 0 0 0 0 0 0 0 0 0 0 0 0 0 0 0 0 0 0 0 0 0 0 0 0 0 0 5:2 6:8 7:8 8:3 9:3 10:2 11:5 12:7 13:4 14:2 15:2 16:3 17:6 18:5 29:1 30:7 31:10 32:7 33:6 34:6 35:8 36:9 37:6 
-0.2316951122443351 -0.2758805179044078 0.1259492671660745 0.06718933981430159 0 0 0.05455626218906225 0.03618284720910062 0.05214615617393397 0.04431029549676661 0.07914577955243697 0.04140086220570559 0.0660248738859487 0.04931324731260248 0.1693191803006035 0.1120853910207125 0.07295189614370511 0.0718438954180619 0.06592131466110442 0.03359170373241639 0.06295981270874017 0.05262450675846535 0.06538200222194049 0.08110141705592613 0.07763423225408599 0.06291102527873924 0.08951552926525273 0.06521921090660521 0.07117036817665069 0.07186846702158725 0.06845448426412254 0.06133225278080909 0.0711417673946973 0.1041849369816598 0.05508604656667598 0.04066581222179457 0.03926270436498629 0.03858846748291733 0.1533484922908476 0.05935511685552269 0.05815513902227408 0.06283405999021262 0.05770446001161642 0.05963813754076104 0.05659876997340447 0.06963738911460014 0.05127420171597338 0.04169925924102209 0.09740172328318178 0.06442013202377007 0.06352656871802798 0.04471647095923928 0.0768835972808856 5:1 6:8 7:8 8:2 9:2 10:2 11:6 12:7 13:3 14:2 15:3 16:3 17:6 18:5 29:7 30:9 31:6 32:6 33:7 34:8 35:8 36:6 37:1 
-0.02664648982565054 -0 0.6028502832022389 0.119818704063607 0.4728546299453958 0.01698640096715646 0.125688471345451 0.0939000475451857 0.3745364918704847 0.1137409525237869 0.1445265784736677 0.1092174190719981 0.1542318310863474 0.1175615026735695 0.08569963502752694 0.1058132276592913 0.169437563529218 0.153933946161994 0.1443984854200271 0.09428494203062725 0.1326293322774903 0.1153936150182357 0.1440853595774618 0.1782306046353281 0.181535683742731 0.1284620124099361 0.1485271386889476 0.1414994692385819 0.1537196377030679 0.160290153679008 0.1437393271942654 0.1312572240370304 0.1113950399658018 0.1560612899914528 0.1231910624995622 0.09412480289959468 0.2009456886587411 0.1185861507135721 0.1128346433936346 0.1374891160680776 0.1123602386383231 0.1354047226991613 0.1273616598319524 0.1456366902654451 0.1801594838593344 0.1509739768020877 0.1972939348421802 0.1373470256793888 0.1424596620282425 0.1508146685603938 0.132928181602774 0.1106354876095028 0.04259819606521305 6:8 7:8 8:3 9:2 10:2 11:5 12:7 13:4 14:3 15:4 16:6 17:7 18:5 29:1 30:9 31:11 32:7 33:8 34:7 35:7 36:8 37:6 
-0 -0 0 0 0 0 0 0 0 0 0.02826644395933829 0 0 0 0 0 0 0 0 0 0 0 0 0 0 0 0 0 0 0 0 0 0 0 0 0 0 0 0.0007114006353855461 0 0 0 0 0 0 0 0 0 0 0 0 0 0 5:2 6:8 7:8 8:2 9:2 10:2 11:5 12:7 13:3 14:2 15:2 16:3 17:6 18:5 30:7 31:9 32:7 33:6 34:6 35:7 36:9 37:6 
-0.03882081940148528 -0.2447487035201464 0 0.04984873524838164 0 0 0.0297688908190419 0.02902732364209587 0 0.02853698964041308 0 0.03172405105658863 0.04883995019686027 0.03682142162602454 0.1104252878384823 0 0.05193144259304337 0.04914773107109058 0.0462559543733197 0.01035481109599842 0.0427972321427726 0.03683263569872324 0.04324405226611171 0.05727515145959512 0.05792928969498597 0.03804475271484956 0.04053136237413286 0.04342029281680956 0.048900991838785 0.0485890075398869 0.04722028132637966 0.0418411001442817 0.02308960019791039 0.03111387206120309 0.0399083451905828 0.02962000627304637 0.006392629306541784 0.03079629954469909 0.01162888385786932 0.04412784414483625 0.03839105177396282 0.04338517639002055 0.04051880507998266 0.04366126488951055 0.006129717897755467 0.04960331507111899 0.05250095021079779 0.03409474080308939 0.02914844559995454 0.04103571258349627 0.04041152831113045 0.03413951473942802 0.2146790896302648 5:2 6:8 7:8 8:2 9:2 10:3 11:5 12:7 13:4 14:2 15:2 16:3 17:7 18:5 30:8 31:9 32:6 33:7 34:8 35:7 36:9 37:6 
-0 -0.1470986530304416 0.04923047694725798 0.03922286650424608 0.2407535915074532 0 0.03474279941173147 0.03660798435138247 0.148868829015604 0.03657180213236782 0 0.04021851773128664 0.06468786641969254 0.04362160103666225 0.05769941268355754 0 0.0661367239016078 0.05106824691397357 0.05596236530999116 0.003003957476851255 0.04964945604339299 0.04489587021697487 0.05497844899738594 0.06887409459248471 0.0712863166332824 0.04066661421930786 0.0440750324610616 0.05212232632568058 0.0596512806374706 0.05742798834541014 0.05537331894141923 0.05031510472406443 0.02066515760366371 0.03698909180332009 0.0474942256211039 0.03637199625336595 0.0690373830865936 0.04279706187716358 0.0502789610040302 0.05377281148874583 0.04350967830808196 0.05031660330677114 0.04789196753062368 0.054347939370579 0.1708444557282089 0.05683888722284971 0.07766319064594027 0.05222257117828484 0.05850753315601726 0.05434696670071713 0.04807310840145577 0.04053052695495014 0 5:1 6:8 7:8 8:2 9:3 10:2 11:5 12:7 13:3 14:2 15:3 16:6 17:7 18:5 30:9 31:10 32:8 33:6 34:6 35:9 36:8 37:6 
-0.2916876116305963 -0.5323547362080386 -0.3473198040726175 0.3194553687975802 0.3974838833366516 0.5118915546371928 0.1856330139106068 0.2417703740807251 0.3704093926506666 0.2419453369365879 0.2567769719949371 0.2864881297394543 0.3667817592147345 0.3081609250999041 0.3385665757726803 0.3468202253365806 0.4296732591362539 0.3817873958175346 0.3669966663702381 0.2642440398404856 0.3388035508400292 0.2999708755160284 0.3637833670059715 0.4459041953789534 0.4534718392870677 0.3057247123908237 0.3426885648913429 0.3627084526760235 0.38995487197506 0.3899794342787192 0.3657188011611303 0.338624047734482 0.3117782743635782 0.4082941694613806 0.3175912307422102 0.2476481973943033 0.2542677262425482 0.3161535530372552 0.2682371245622008 0.3549251417048966 0.3036992554647684 0.3410697971696641 0.3289765968484358 0.3802920838459159 0.3549603628925673 0.3794682259674647 0.497736242509088 0.3533884018270463 0.3563042866959905 0.3875114278472484 0.3436269041192461 0.2918238528490373 0.2664618229904082 6:4 7:5 8:4 9:2 10:2 11:6 12:8 13:8 14:4 15:4 16:6 17:7 18:5 29:1 30:6 31:10 32:8 33:6 34:9 35:7 36:8 37:6 38:4 
-0.0411955922502254 -0.07648837029549319 -0.4639292054918706 0.05680365644470646 0 0.04000133665668571 0 0.03172438134466032 0.1281602197482382 0.06252279458858374 0.08929629390581506 0.05418079854149748 0.04727051022950594 0.0534348431058819 0.003777242803959663 0.1829945794446199 0.09070917525951395 0.08147025060590229 0.06282203118356172 0.01127990941347518 0.05855114811795699 0.05484185118565001 0.06617555110636032 0.1012060976932194 0.1056597469501669 0.08265985664067514 0.09223839135440892 0.0680486829524725 0.07107135971364807 0.08270798194845834 0.06545340970135363 0.06103186567427928 0.0990598984516181 0.1369265743705245 0.0537714081480803 0.04618861555484034 0.1452466234245491 0.05765412382712526 0.02833911418938057 0.06404522972016337 0.05484772247871823 0.05787441197830811 0.05599558717397935 0.06292708439885553 0.09472167977963394 0.06761764116574052 0.08880373901572111 0.06468061223656379 0 0.07048505418633837 0.06338497729018272 0.05246106972319817 0.0353016580645133 6:4 7:6 8:3 9:3 10:2 11:6 12:9 13:6 14:4 15:4 16:5 17:7 18:4 19:2 29:1 30:8 31:11 32:7 33:7 34:7 35:6 36:8 37:6 38:4 
-0 -0.006062675325754982 -0 0 0 0 0.1378856017372412 0.03728867424509028 0 0 0 0 0 0 0.02318392968841149 0 0 0 0 0 0 0 0 0 0 0 0 0 0 0 0 0 0 0 0 0 0 0 0 0 0 0 0 0.009992033188199497 0.014302202277896 0 0 0.00694976804245722 0 0 0 0 0 6:4 7:5 8:3 9:2 10:2 11:6 12:8 13:7 14:6 15:4 16:6 17:7 18:4 29:1 30:6 31:10 32:8 33:6 34:8 35:7 36:8 37:6 38:4 
-0.08674843441294088 -0.07278388190816237 -0.04623247166148595 0.08140414103647349 0.3544797503162886 0.5242124808630021 0.01628166447640716 0.06389705681280224 0.1359600719713664 0.1264932644465594 0.08182543070144885 0.0743724601983607 0.1716309065232762 0.07924439126260409 0.07147873955188429 0.07064008574780183 0.1123488037709967 0.09329923923651988 0.1011072787448632 0.0495105610767662 0.100099949858288 0.07716594412772051 0.09355041705265724 0.1194765467144256 0.1225993701313006 0.07502368443664162 0.09237003462193458 0.09152212757749358 0.1002112490231285 0.09814857910232939 0.09805260904354324 0.08713318812930015 0.09099296038146681 0.1212657717146313 0.0940157343088656 0.06340139006578502 0.1284021330604831 0.08424079787879693 0.08266635042896052 0.09038567328249193 0.07958394960191273 0.09277709584770316 0.08619891410583713 0.09865481171641709 0.1060021578299307 0.09224810030883041 0.1630584558238125 0.09437555143825008 0.1788277383390957 0.09952367233492604 0.09013414112872747 0.07698072182645796 0.07401691717125575 6:4 7:6 8:4 9:2 10:4 11:6 12:8 13:6 14:4 15:4 16:6 17:7 18:4 19:1 29:7 30:10 31:8 32:6 33:8 34:6 35:9 36:8 37:4 
-0 -0 -0 0 0.1070022516371382 0 0 0 0 0 0 0 0 0 0 0 0 0 0 0 0 0 0 0 0 0 0 0 0 0 0 0 0 0 0 0 0 0 0 0 0 0 0 0 0 0 0 0 0 0 0 0 0 6:5 7:6 8:3 9:2 10:2 11:6 12:8 13:6 14:5 15:4 16:5 17:7 18:4 29:6 30:10 31:9 32:6 33:6 34:6 35:8 36:8 37:4 
-0.4443873882928996 -0.5759289465134659 -0.5491830998318648 0.546651398645007 0.3543375576143213 0.2263366427769654 0.454681488795653 0.4086182437462058 0.5918695433346179 0.4163972769472655 0.4506274582611014 0.4881753792534255 0.6412649927179163 0.5300453730461128 0.473612182326295 0.605318083580401 0.7321654364967897 0.6460976303519624 0.6325071082644357 0.4948329810442174 0.5846826297423426 0.5162729213765669 0.6254798448297744 0.761030047522619 0.7620097537204585 0.5326832919137763 0.5958535095427879 0.6235799555490839 0.6695668016348061 0.6739584349217336 0.631326822892346 0.5828741973050825 0.5571483787790042 0.7096939219321643 0.5527056990005357 0.4259051704197926 0.4803526276731133 0.5318997950164989 0.3960097348604592 0.6052235009188428 0.5213145322209819 0.6075393939207246 0.5844225365884962 0.631784123359927 0.5848872823762231 0.6462639328091832 0.7818875509181048 0.5835654258301848 0.5640763205494719 0.6491443860564958 0.5877669875101056 0.4961165156358914 0.4274481025172077 6:5 7:6 8:2 9:2 10:2 11:6 12:8 13:7 14:4 15:5 16:5 17:8 18:6 20:1 21:1 29:1 30:6 31:10 32:8 33:6 34:6 35:6 36:9 37:9 38:7 
-0 -0 -0.06588206255138822 0 0 0 0 0 0 0 0 0 0 0 0 0 0 0 0 0 0 0 0 0 0 0 0 0 0 0 0 0 0 0 0 0 0 0 0 0 0 0 0 0 0 0 0 0 0 0 0 0 0 6:4 7:7 8:2 9:2 10:2 11:6 12:8 13:6 14:4 15:4 16:5 17:7 18:4 29:6 30:11 31:7 32:6 33:6 34:6 35:8 36:7 37:4 
-0.04443038829658886 -0.3109832229632121 -0.7786469231341616 0.004416491243817071 0.4721044314385753 0.5347754387467556 0.002381037165485059 0 0.09471813599140816 0 0.02070599467974987 0.0006479139886067345 0 0.001200162223137672 0 0.1221291554946186 0.01438293956677859 0.007905047446033585 0.001582399977875118 0 0 0.002297630871807896 0.007682305395502608 0.01566773223439267 0.0150673235413719 0 0 0.001615512530998316 0.003004894598154378 0 0 0.00195233743753045 0 0.006482163298836719 0 0.001797858269900419 0 0.002365402298752171 0 0.002359257984749836 0.002625825422912442 0 0 0.0007560948612111882 0 0 0.01463938914880934 0.001376415322166632 0 0.002997878332352754 0.002913862796262228 0.001431939299516354 0.02163259862041134 6:5 7:7 8:3 9:2 10:3 11:7 12:8 13:6 14:4 15:4 16:5 17:7 18:5 19:1 29:1 30:6 31:10 32:8 33:7 34:6 35:7 36:8 37:9 38:5 
-0.04483143856468361 -0.1156149526356332 -0.1570348766004233 0.03534752159821349 0 0 0 0.01281920143908176 0.1622294478176233 0.05544500376549397 0.1232791389891201 0.03193939138979207 0.02183243257466749 0.03536782835376651 0.03784870553431839 0.2262449135525743 0.05367623777914388 0.04715156588695014 0.03634033330775884 0.05759057354391242 0.04383624708223584 0.03229258058671305 0.03952079407979445 0.064081025925301 0.06409204107213158 0.08138976063533103 0.09492651273462532 0.04508346666400284 0.04312139673533461 0.03922306971157948 0.04193026844743156 0.04450092540512498 0.06441833058084455 0.09665253044193062 0.03033714406032139 0.02728144185636896 0.1146142808285032 0.02900622538171809 0.03837197241852325 0.0386223563756783 0.03198592944842157 0.04766432161666222 0.03819389607322074 0.02651822679460338 0.03806134766372769 0.03902945218979388 0 0.03143475631855005 0.001915581086675624 0.03236157170119704 0.03610898295598378 0.02978380736972062 0.03989046990811033 6:4 7:7 8:2 9:2 10:2 11:6 12:8 13:6 14:4 15:4 16:6 17:7 18:5 29:7 30:11 31:8 32:6 33:6 34:6 35:8 36:7 37:4 
-0 -0 -0 0 0 0.3219013854507927 0 0 0 0 0 0 0 0 0 0 0 0 0 0 0 0 0 0 0 0 0 0 0 0 0 0 0 0 0 0 0 0 0 0 0 0 0 0 0 0 0 0 0 0 0 0 0 6:4 7:6 8:5 9:2 10:3 11:6 12:8 13:6 14:4 15:5 16:5 17:7 18:5 29:6 30:10 31:8 32:7 33:7 34:7 35:8 36:8 37:4 38:1 
-0 -0 -0 0 0 0.3788998573146236 0 0 0 0 0 0 0 0 0 0 0 0 0 0 0 0 0 0 0 0 0 0 0 0 0 0 0 0 0 0 0 0 0 0 0 0 0 0 0 0 0 0 0 0 0 0 0 6:4 7:6 8:4 9:2 10:2 11:6 12:9 13:6 14:4 15:4 16:5 17:7 18:4 29:1 30:6 31:10 32:7 33:6 34:6 35:6 36:9 37:8 38:4 
-0.006069152619093725 -0 -0 0.02837963716267759 0 0 0.05730873244065689 0.03177686565803824 0.02674829524040651 0.05920869733967068 0 0.02678574170994448 0.04635273845636843 0.03002889315387634 0 0.03501202763453328 0.03909338800926477 0.02853029490878178 0.03510574316046615 0.03391801439025603 0.03184988400991107 0.02792638788188231 0.03398201102300319 0.03546907505834728 0.03215478537327453 0.02855697012094756 0.02341122622451477 0.03313494312260169 0.0354672332873931 0.03541731056335171 0.03310167375264716 0.02826949518707182 0.01781021604118366 0.01002926983590815 0.03326401047491246 0.02241524226547211 0 0.02765700656322717 0 0.03114508083346335 0.02888683895103014 0.03249765508773182 0.03018844185597351 0.03460829388539852 0.005300178003656616 0.03107650849925951 0.0313057014272579 0.02547804983704894 0 0.02935311454794982 0.02835201973685058 0.02591569881380157 0.01807343073284337 5:1 6:4 7:5 8:2 9:2 10:2 11:7 12:8 13:6 14:5 15:5 16:7 17:7 18:5 19:1 29:7 30:10 31:9 32:8 33:6 34:7 35:8 36:6 37:4 38:2 
-0 -0 -0 0 0 0 0 0 0.01249038956784875 0 0 0 0 0 0 0 0 0 0 0 0 0 0 0 0 0 0 0 0 0 0 0 0 0 0 0 0 0 0 0 0 0 0 0 0 0 0 0 0 0 0 0 0 6:4 7:7 8:2 9:2 10:3 11:6 12:8 13:7 14:4 15:6 16:5 17:8 18:4 29:1 30:6 31:11 32:8 33:6 34:7 35:6 36:9 37:7 38:5 
-0.8408309831245757 -1 -1 0.8357873692696886 1 1 0.7192274489227913 0.6233105898775143 1 0.6737664729784778 0.8438740685650191 0.7331267613871659 0.9945509191943982 0.7902296700787872 0.8124848263802268 1 1 0.9934698063017843 0.9458546488746392 0.7086582289834162 0.8783444484799436 0.7721597554505054 0.9391640564589672 1 1 0.8102964036181204 0.9284901284820264 0.9362805563854363 1 1 0.9455104322808584 0.8693755313999284 0.93023722513215 1 0.8242203706630583 0.6370261708053301 0.9549311511734396 0.7993018175279117 0.7575988981583611 0.9067749987619396 0.7804573568889832 0.8935604455909775 0.8524647601525885 0.9625512563038994 1 0.9728028690116658 1 0.890758473289701 0.9350361690392829 0.9886897638377499 0.8837903405137825 0.7435258158382519 0.7982787309895151 5:1 6:8 7:8 8:3 9:2 10:2 11:6 12:7 13:3 14:2 15:2 16:5 17:7 18:5 29:1 30:9 31:11 32:6 33:6 34:6 35:8 36:8 37:6 
-0.1995774183114531 -0.1819866346863474 -0.2720369371727083 0.1838635491648372 0.04876369752582037 0.1122845704319672 0.1851125888217987 0.1633876350520894 0.179538611150601 0.1435466106897338 0.2438711275092456 0.1719289525064307 0.2159309441203284 0.1651016786602336 0.2732662794959282 0.1842705580614671 0.2401892255453352 0.2258071783299962 0.2084062474648968 0.1547168201476881 0.1895210756136155 0.1702871432121836 0.2093157635155742 0.2546228722022557 0.2651010775634447 0.1914967291207965 0.2030973806000405 0.2070739308720741 0.2214789405542047 0.2240370999854554 0.2089776379542342 0.199223048877898 0.2026592595580829 0.2635882444217615 0.1806803719330538 0.1418544831237429 0.1211033357809529 0.1876397148063727 0.212074785684592 0.2010909960188344 0.1726882177801222 0.1965582233474201 0.1827260603132899 0.2529936463936616 0.2775869202466126 0.2148244412685365 0.2968675048037016 0.2204126528031372 0.3655458562523792 0.2455928799434469 0.2026113690256986 0.1687239469547219 0.1631044395837545 6:4 7:5 8:3 9:3 10:2 11:6 12:8 13:7 14:4 15:4 16:5 17:7 18:4 29:6 30:10 31:7 32:9 33:6 34:6 35:8 36:6 37:4 
-0.2801922041412851 -0.4064808222596764 -0.3357599557003349 0.3550800444935641 0.1766250649306306 0.3110085873788537 0.3061041785890652 0.265435862324331 0.3628313950564939 0.2764868797176868 0.2657709307466133 0.3190505662940936 0.4164864183250819 0.3373570683081697 0.330904718495419 0.3918686240212702 0.471172819183467 0.4214169026093956 0.4093440528427711 0.270923379690156 0.3788685991768094 0.3346190196861568 0.4068390170610472 0.4960566050075795 0.5004739794824364 0.3507441416997284 0.3908145075355101 0.4043715593543024 0.4350199375644851 0.4385485073107454 0.4112746411909162 0.3752799382830326 0.3617080652066729 0.4660317970504633 0.357166116819824 0.2762026043599785 0.3021037890922505 0.3471643898371172 0.2580503184310868 0.3926867709308759 0.3374510556038695 0.3858753181379976 0.3660523056701142 0.423581589278045 0.3928530210927134 0.4298835483913004 0.519865023372258 0.3869353569209956 0.38849360940541 0.4305424787537454 0.3834961709762892 0.3224396460163066 0.2724591346460366 6:4 7:5 8:2 9:2 10:3 11:8 12:9 13:7 14:4 15:5 16:5 17:7 18:4 19:2 28:2 29:6 30:10 31:7 32:6 33:7 34:7 35:8 36:6 37:4 38:1 39:3 
-0 -0 -0 0 0 0 0 0 0 0 0 0 0 0 0 0 0 0 0 0.03149019926814687 0 0 0 0 0 0 0 0 0 0 0 0 0 0 0 0 0 0 0 0 0 0 0 0 0 0 0 0 0.02124925198221263 0 0 0 0 6:4 7:7 8:3 9:3 10:2 11:6 12:8 13:7 14:4 15:4 16:5 17:8 18:4 19:1 29:1 30:7 31:10 32:7 33:6 34:6 35:7 36:8 37:8 38:6 
-0.4222742015866857 -0.6794561071905943 -0.5745351540880387 0.5092056294611016 0.541521643433062 0.4836756615385842 0.5388429134694861 0.437531604493089 0.6682628131352149 0.434558559281977 0.410384068697045 0.4565020293926046 0.6163572141704922 0.4893359562218206 0.5243861840060927 0.5597952618427501 0.6847354249090655 0.6028181039013736 0.5906506406294396 0.4198138375605417 0.5448531356093004 0.4790048704210592 0.5820962803609068 0.7101975636482057 0.7182443810294342 0.4953848998181032 0.5650826513564676 0.5781691956941841 0.6220246493796528 0.6351357550595013 0.5886375245853602 0.5398377645792731 0.5192609433329812 0.6572986503217437 0.5133671046842931 0.3961120798273566 0.5358500006608873 0.5021199289544281 0.3859995480010922 0.5677957405755303 0.4852267873912001 0.5558961567774144 0.529597216227829 0.6033487539403901 0.5710720134701202 0.6171899825357486 0.7679231912509378 0.5582912255575938 0.6071846790868648 0.6137002034835015 0.547621516140107 0.4633865189487502 0.4061851212170632 6:4 7:5 8:2 9:4 10:4 11:6 12:8 13:7 14:4 15:6 16:6 17:7 18:4 29:6 30:10 31:7 32:6 33:9 34:10 35:9 36:6 37:4 
-0.2047070391363691 -0.2658938244725081 -0.03348223393273699 0.2615528867489113 0.8375753520226816 0.1856914238993482 0.2772201847608133 0.193828012498577 0.3446674055888969 0.1950627446088598 0.194597708912562 0.2328136516463665 0.3424888966971103 0.2532732406168243 0.1977068176852082 0.2419931655805806 0.3458549676742703 0.3042190045261974 0.3059523610594137 0.20985897990377 0.2762881037115331 0.24667503163413 0.2968531316830832 0.3593454558870661 0.3639680050908448 0.2485442424645865 0.2711757312717831 0.298525036227149 0.3197047955679091 0.3153504614339614 0.3009699942082145 0.279354306293267 0.2536883064843885 0.3209684175171628 0.2702395282830906 0.203278204806488 0.1941141920554876 0.2528900912749814 0.1599126119813431 0.2891613155690306 0.2489835055423864 0.2788714589479474 0.2652391845775919 0.2983636012006891 0.2866843647717053 0.3090110992697085 0.3853904053208606 0.2799376178875781 0.2756573660172916 0.3023166009740838 0.2816857863762645 0.2362782177959147 0.1988051219306596 6:4 7:6 8:4 9:2 10:3 11:7 12:8 13:6 14:4 15:6 16:6 17:8 18:4 29:1 30:6 31:10 32:8 33:7 34:7 35:6 36:10 37:8 38:5 
-0.07801668054501867 -0.02436037825010985 -0 0.1199899877170507 0.00672763863024169 0 0.1549159735895213 0.1008430477706184 0.09796604496361863 0.1179392769096714 0.08573014886718469 0.1088780426824364 0.1625328624885451 0.1113929834654156 0.07792854293125326 0.07986140843688251 0.1539213842372852 0.1418334464738713 0.1403479933289449 0.0973692867472454 0.1335443020857208 0.1117512983799685 0.1428545011483902 0.1588545471161361 0.1678023977557533 0.1152188976010553 0.1336650048961855 0.1345794606257531 0.1450554142753952 0.1598261006737863 0.1410065430727369 0.1245445121533638 0.1216984414096363 0.1432786326373026 0.120701491259671 0.09233133934070187 0.1105963717264206 0.118967887625251 0.01733778347244769 0.1305738167354605 0.113061180635491 0.1388471546971486 0.1236476564447999 0.1619380228014258 0.1633033820410215 0.1517183214138863 0.1740112409561262 0.1385670603924124 0.1564668566883722 0.1772164616113494 0.1283758568023233 0.1092858464875055 0.09270238154352417 6:4 7:5 8:2 9:2 10:3 11:6 12:8 13:7 14:5 15:5 16:6 17:7 18:4 20:1 21:1 29:1 30:7 31:10 32:8 33:7 34:6 35:6 36:9 37:6 38:6 
-0.004170813749957117 -0.002726206404887855 -0.3949615854354295 0.02574927998618787 0.1096673612995701 0.8311375137439586 0.04131246788280218 0.01760096587727961 0.09667619088227491 0.09189071688797661 0.02748649607913669 0.02534691660519237 0.1108252402521283 0.0277529107470315 0 0.04062138398227404 0.05259711250316651 0.02539311418486026 0.03557298610633474 0.07286198459516026 0.04729476955838788 0.02539285627092085 0.03271428856976794 0.05522346687866422 0.06167295679253599 0.02973185170353218 0.06431127765550729 0.03094330427008592 0.03363477656591006 0.05550730164939798 0.04397928578072179 0.02700978004726689 0.0472492433137777 0.08654050515166016 0.03637076847784808 0.02101575069506923 0.2235323820318313 0.02661722322260318 0 0.03154846324996256 0.02577956157901986 0.05887141984690554 0.04809640565569399 0.04253051971456587 0.06699692065868694 0.04593828969423179 0.1162976461203506 0.03443986823778457 0.1880958688687052 0.03459519290178444 0.03103006056826999 0.02643892966825105 0.003582913462539851 5:1 6:5 7:6 8:3 9:4 10:3 11:7 12:8 13:6 14:4 15:4 16:5 17:7 18:4 29:2 30:8 31:10 32:7 33:6 34:7 35:6 36:8 37:9 38:4 
